{"penalty": "l2", "dual": false, "tol": 0.0001, "C": 0.017, "fit_intercept": true, "intercept_scaling": 1, "class_weight": null, "random_state": null, "solver": "liblinear", "max_iter": 100, "multi_class": "auto", "verbose": 0, "warm_start": false, "n_jobs": null, "l1_ratio": null, "classes_": [0, 1], "coef_": [[0.005499199686663429, 0.00889399400884068, -0.04918203132033929, -0.053515833466044556, 0.007836430755855382, 0.02174887781967441, 0.02132046024720835, 0.01714392693155357, 0.012223124782256393, 0.014645069090654791, 0.013362240943410576, 0.012357246594266486, 0.0010515911524879953, 0.0010203753344257224, -0.013302960472236154, 0.0004169680833202164, 0.006994892587400343, -0.013151032706725924, 0.000504474514495206, 0.008551618884023953, -0.010460866229175724, -0.004233898594761886, -0.0059702123549543185, -0.002436908422926543, -0.00414043841201917, -0.005793234584249948, -0.008537253066764517, -0.004921480325384497, -0.014516816740985055, -0.03147363271942873, 0.0058403323137365725, 0.015540591195418741, 0.034403833429276054, 0.019384839250674756, 0.008349321138592132, 0.007945347205726552, 0.01299468123005859, 0.0065468551271669105, 0.00863665679832788, 0.01040457748924221, 0.008387536883198298, 0.02504972373117082, 0.021655525515770175, 0.03257064042799964, 0.03237023111103746, 0.04910719932298503, 0.054226645750038965, 0.04399892082995473, -0.0032620967761453215, -0.0035636355382882533, -0.0038552402697542383, 0.02468068749771628, 0.011748249542529152, -0.004024134546711404, -0.007436006276443902, 0.014838006949434244, 0.046266989334206234, 0.049667002508082626, 0.018026159581760404, 0.033263993670932565, 0.017431111864852612, 0.01095357203680226, 0.014512847956490965, 0.01566142239466243, 0.003111099534425306, 0.008452094401899089, 0.008381700876618879, 3.157737672512866e-05, -0.0020424507772235315, 0.025473016366829818, 0.02569169628133007, 0.05732250497165843, 0.02499969780483471, 0.02754959944443242, 0.005215375537558295, 0.001530446862351749, -0.017118413870066216, -0.005148578863666001, 0.019389837899397005, 0.02706987220879423, 0.022787834895417917, 0.008052197907497047, 0.002757881881301191, -0.020989881436689624, 0.0009549428469763441, 0.008729647122863005, 0.030741405823565493, 0.049232834388120365, 0.015152828186554368, 0.010001601452096266, 0.008562459762525258, 0.008325135169125461, 0.014808362547777197, 0.02940361496821443, 0.02555395755405706, 0.01256995202021635, 0.0164101437607898, 0.013676998537238437, 0.04401721132826869, 0.047111691306267967, 0.0038705762789605406, 0.007985564947080845, 0.0038459166305041402, -0.04604519151814864, -0.024096316314734096, -0.019883726576732666, -0.01813894117118724, -0.015498271950241433, -0.019771278942400796, -0.005605591291918567, 0.004176985955692513, -0.014296025589653195, -0.005107798458637963, -0.00017884877900488654, 0.0008448798052461261, -0.032575955604055816, -0.024582666859245417, -0.03273209501615812, -0.024374544915609173, -0.011837670758938986, -0.01415307369035005, -0.014783578446191327, -0.020880183639020045, -0.022274225462520603, 0.023109301055376272, -0.012345998825161578, -0.020046465445140455, -0.02229610963880516, 0.00780098292167057, 0.005633948997825952, -0.01083360500819164, -0.031992255112912836, 0.04838795854927746, -0.009256484405285625, -0.027922051089595692, 0.005739078990009084, 0.0035278727411376153, 0.0071543824196953305, 0.0017073614610268416, -0.002042040154534457, 0.004197458340204233, 0.026501928723857808, -0.005603344100776828, -0.03774840770130866, -0.005258345437137411, 0.021790570895942316, 0.023476636294949352, 0.021728011005557848, 0.0036420512596101566, -0.008833445347470931, 0.0011531057921652576, 0.007691871223581007, -0.005504458581897444, 0.006440590851416459, 0.0036766572409367318, 0.0035167852042873645, 0.010569000502124724, 0.02786273708887729, 0.04905633904207969, 0.04698409250639109, -0.015529456232291164, 0.0013730513177780727, -0.015403213775881218, -0.010559842171892547, -0.022546419189399994, 0.004216557303119037, 0.011310244716881957, 0.008090827007655111, 0.011258426977399363, 0.00877975926761827, 0.01592066417805878, 0.0171530520070991, 0.010385686666736081, 0.005216111855400562, 0.004073846557345461, -0.0013536964290588333, -0.022464535670041835, -0.01900257134213043, -0.020740631554290432, -0.008827612655191113, -0.0012909931447235002, -0.012434145277622542, -0.008460774538498242, -0.020028912015756756, -0.0010261379185098015, 8.805047507648885e-05, -0.01989124623687477, 0.0021185636237466927, 0.0028267028763902294, 0.0006067715741972659, -0.0009923812964839256, 0.0001340587998457664, -0.012526103955936143, -0.0010867374195060488, -0.006225632836014867, 0.005219542682017026, 0.00013290695820092777, 0.0029546658584541645, 0.006213914188059407, 0.022154702274238224, 0.003840929060562767, 0.01534028433413843, -0.00046992360037824996, -0.012446997205692032, -0.016894583886294057, 0.002053322485818234, -0.003998045753151303, -0.002885570933811663, -0.004111986722310312, 0.0004482668184601959, 0.001587073656109581, -0.00039805223245118664, -0.01076117506754103, 0.00506192939971321, 0.0021467002356128024, 0.016430929569619813, 0.018788877244178874, 0.009277106620753331, 0.00839535998002292, 0.017498420316416973, 0.014438704447047998, 0.009038807842257014, 0.013586927987037005, 0.015766019570830698, 0.014632579226960934, 0.017368161645060647, 0.013673639000611165, 0.010432059689533847, -0.003603428314596558, -0.006355827881845452, -0.006412313760882064, -0.010520477071828887, 0.007645384970230727, 0.0016302796780662187, 0.006397513909822627, 0.006035871951377156, 0.0025424683544530004, 0.04087061054178096, -0.0011860397820995473, -0.01839056047329508, -0.004936993535268314, 7.534382383120138e-05, 0.008947608602757567, -0.02209065736448475, -0.017893810893889864, -0.015378845001926366, -0.01354145119200638, -0.0006387929607989079, -0.004846077027157074, -0.004844815989872924, 0.0006444861178917519, 0.0008511158587854685, -0.002686676656750268, 0.015218773688563225, 0.025302890394626854, 0.0036631643049953853, 0.032786369369402255, 0.030310285595471945, 0.013021524291186694, 0.0074192049377308405, 0.015612540634780637, -0.006040038973993603, 0.010447331116337579, 0.03327644736785557, 0.03590512064811015, 0.03250102730028379, 0.03370402385844987, 0.0305908497708488, 0.020552248422287808, 0.03501235641304227, 0.03853173538078295, 0.0217863926326022, 0.027817974267918166, 0.005528701384524295, -0.0038801447489735185, -0.000343348332071491, -0.009417488172527227, 0.0052116969732089935, -0.010078863944693322, -0.010430815081005101, -0.002835380786041849, -0.0020630715448512593, -0.0017007343725530912, 0.003319232412463697, 0.0030612565924176575, -0.0300665616487014, 0.012572089455779449, 0.031022275451550934, 0.008408089662169146, 0.021637960284593933, -0.01662097623112435, -0.014892604703187776, -0.016685603126022984, -0.0163041621209711, -0.018017166601966346, -0.013011419430643547, -0.016478624941241842, -0.0035888271507718687, -0.024403258300878857, -0.021982898750971647, -0.01827345848421435, 0.005013887734628209, 0.0006397424742345947, -0.0009632615772211061, -0.0034954450271994383, -0.009720780140510435, -0.0035103664952756924, 0.006405863185450041, -6.0060869675362056e-06, 0.006338643474668624, 0.011609727345785982, 0.012145080075388568, 0.0013366219385499002, 0.02263225813910625, 0.002219210179286873, 0.005526402725048451, -0.017070918698360023, -0.013839893515619128, -0.014154627165226454, -0.018534056792226774, 0.005323922039367166, 0.0009943052446185609, -0.012582828661841607, -0.007570622789750367, -0.00834349668208159, -0.026277835555403587, -0.03198957609513007, -0.03096246972516359, -0.02512837693248289, -0.005501746773359471, -0.0144824398628681, -0.02683877133367836, -0.008465860962779516, -0.0043356024626406845, -0.0022299249093752286, -0.001622774668551399, -0.01047452728374056, -0.014805281902216255, -0.016428668166303714, -0.02476567845767031, -0.008623503248426421, -0.019119250702393606, -0.012652328197619795, -0.013024227854918701, -0.007910594371528109, -0.008800383015485979, -0.02381776080827073, -0.014235540741578975, -0.022410272432041804, -0.020907348726845843, -0.018392667603631698, -0.02180122684776361, 0.020316714694479012, 0.03644409729694298, -0.03180741015265093, -0.03421112119227019, -0.03326894292206292, -0.033251558120459275, -0.03965281565651002, -0.014674588167248053, -0.03042170338937447, -0.031774524849243035, -0.023695584568545067, -0.02989235598259563, -0.02521667371624658, 0.002499856165183626, 0.02913754407093753, 0.04074599466442867, 0.014328678361552459, -0.011351699763546602, -0.0051232959268736125, -0.023043407784272968, -0.02064723769488061, -0.019965079586101962, -0.017129919117231787, 0.00870310500714071, 0.014307593734585924, 0.007758261541435794, 0.005957068502061889, 0.011085250676040987, 0.020900129873958166, 0.01753776274791975, 0.010647698177625932, 0.017721328286339405, 0.004752597295247162, 0.005354275673501713, -0.009264341624752065, -0.020953360475077003, -0.028344526539184883, 0.009066231417335497, 0.0016522044069406283, -0.011815325643616434, -0.011261946738687757, -0.01570874294534276, -0.0025378423350931527, -0.012245499915891318, -0.025513233941901622, -0.033131784433891025, 0.00039579391008203965, -0.03110328715503619, -0.036986233259666504, -0.02472996272970579, 0.005828014088368048, 0.005371468805089566, -0.003477448434701384, -3.640150498422938e-05, 0.003010317236836835, -0.000995024326641861, -0.0020586398647987666, -0.012459351644747953, -0.010520128830590132, -0.004774167944515877, -0.003047564450506398, -0.01717796711368772, 0.021606270981905876, 0.02663180761305241, 0.004778833689940395, 0.003421270351180486, 0.006479965753900713, -0.005355328708789636, -0.03385883801473067, 0.00179559712690906, 0.006577709905429504, -0.00565491559020383, 0.00730431252718052, 0.006978744625685803, -0.0004726819691328229, 0.0031295106900824307, 0.003261638552992946, 0.009455126993278508, 0.005891226880667827, -0.003092172195905501, -0.006579053180899124, -0.00405380658378329, -0.004334744599368568, -0.005053919954170215, -0.0040965982019424895, -0.014509692046677446, -0.01810378891609201, -0.0001006255577069637, 0.004617729680560648, -0.0068773087971206225, 0.000574464203626222, 0.013895613071388651, -0.008622219819204966, -0.005066201149821914, -0.010655082021411407, -0.01133464526403307, -0.0052361038678567446, -0.00892043353416838, -0.020851298478103165, -0.017206436585268912, -0.02083161266024862, 0.010977834313265508, 0.009797774636271378, 0.00791674479437137, 0.010990759052707183, 0.0004253468389047669, -0.018762229028831467, -0.01440505550817915, -0.008145770956176942, 0.004082633663588874, 0.014696293577411132, 0.010196418530695936, -0.0006179961085106786, -0.0014964937492776074, 0.003309798141074581, 0.013949597864204468, 0.018887107532996782, 0.022133604251668843, 0.02226061718289841, 0.021659022252101805, 0.019391386102597847, 0.014380558877389838, 0.0015991962912242316, 0.004730370908358373, -0.00036781054758385303, -0.017280901914879705, -0.014064565639924045, -0.004628262245904647, -0.003340110268334538, 0.020262371209449577, -0.005387629440203357, -0.005473904495212195, 0.00246418596167808, -0.0020633419389991074, 0.004172093160727095, -0.025925753658119038, -0.019930123522187128, -0.011131064570821135, -0.019684887653625218, -0.014200910513040827, -0.01317220010399999, -0.0010031645389023867, 0.018469111899269704, 0.002352378801733836, 0.013134983213631133, -0.01903798999956901, -0.017869597739813118, -0.01879330592405493, -0.02016180925527984, -0.02321362360315189, -0.023352481689260962, 0.014124704524790341, 0.022723368324467225, 0.019390650043244476, 0.02642642891687043, 0.02228419292563917, 0.006483156576680233, 0.010359794763389548, 0.012833989575037707, 0.009809233283025283, 0.01586168123574374, 0.008404426640530037, 0.014255686083353765, 0.003033179018705757, -0.004511609891603432, 0.011121934047526942, -0.007430083156858083, -0.0018370575950866772, -0.0036510543425942207, -0.009728814895805257, 0.0031085125586432913, -0.011191922784339725, -0.031790001688441, -0.0031779446642331947, -0.010313643221060109, -0.02806941327092131, -0.01335037707235938, 0.016677222159813092, 0.0187907205411978, 0.016155622799439332, 0.0012459770946886015, -0.0016706834948426708, -0.015405377254573306, -0.0017392108341980868, -0.0022538913820311208, 0.004146218788932027, 0.00045419442704456485, 0.0005467029705361377, -0.012239407992589373, 0.01128626795982605, 0.02017704872828603, 0.015963038234170328, 0.006474149796359784, -0.00022979527487592007, -0.01886984163842579, -0.029048494969850243, -0.033916954324634395, 0.0028045357173841173, -0.0017934463191878274, 0.011674114417899208, -0.002283567575670384, 0.0036140385660872877, -0.009022751296362519, -0.012231042010235543, -0.017391658698884295, -0.017887335992961145, -0.019385348147821557, -0.021726693260911405, -0.009846687290063385, -0.0038960151015978973, -0.005557953433461391, -0.012348816204398578, -0.00044941521872778994, -0.0312994229822126, -0.02094990952057111, -0.019839233463390837, -0.02138822205920472, -0.018565151476409365, -0.019081296308812404, -0.010254494426916312, -0.00819856536680409, -0.006753654897387412, -0.013242304466972946, -0.0028296929636941887, -0.001541791906656412, 0.00561047529172232, -0.006735422481094625, -0.021901343702721558, -0.015426705824470624, 0.009736091098054104, 0.007435929192712606, 0.013168846794086319, 0.025107271144803666, 0.010122769379621097, -0.008617976336756572, -0.010929899792723081, -0.003756320895429437, 0.007884904647323464, 0.009751120127996355, 0.0023457339864967476, 0.010590336506531777, 0.0019885098839585746, 0.0006783453997635391, -0.009977135753325761, -3.415168080037117e-06, -0.01198239110068692, -0.007342890747881569, -0.012888505516460966, 0.0011109484267942072, -0.007731839708874371, 0.006354982219985797, 0.005217955929824846, 0.008352440652720837, 0.00740912792076832, 0.010376361800641975, 0.01394653398239634, -0.0011903817314386483, 0.00883142043195455, 0.008102020060684723, 0.005579549105328337, -0.002783963224281422, 0.0014054706143405572, -0.006895100035516696, 0.0020080790676081893, -0.0030875552120461277, -0.009337969262521163, -0.003140668380110504, -0.007726342095783559, -0.008606785166929927, -0.013718247164028653, 0.01704830138342142, 0.014931973672164428, 0.006963793425049512, -0.020053418841211566, -0.019967805716258415, -0.01648434437826253, -0.012842074244847294, -0.01575480333883604, -0.016013184102464238, 0.004145999503169225, 0.007236462419613814, 0.007004003857512814, 0.01565073927455184, 0.0010376106658927936, 0.01776816396601393, -0.007332868867258375, -0.00012354544399183334, 0.0010159648307112008, 0.023199545370238713, 0.011148636186837505, 0.01350806814562638, -0.0007091231154762008, 0.005796229169271838, -0.002851952561460488, -0.011601818518685, 0.013775051691751396, 0.015058103166341624, 0.01297489564456867, 0.014579416644900119, 0.011124109538002747, 0.02096734510336436, 0.017738709750670493, 0.019870382865146877, 0.01329458886964736, 0.01740880628856992, -0.0008365871919528286, -0.007425408357039807, 0.004896714712428541, -0.011884378132806841, -0.00837852104800407, -0.012769779379405388, -0.018198891771599956, -0.02417110364503513, -0.017782114575882964, -0.0128156221367654, -0.014452157997125811, 0.0004266681250591387, 0.003687043788952921, 0.024432868490581856, 0.027189617608113777, 0.015320951631088445, 0.02299696305202348, 0.011341826582452598, -0.004942455697828592, -0.018375365505694977, -0.023697325221762915, -0.017630281138500483, -0.02450217366739331, -0.028611407418970808, -0.008708002235755118, -0.0075182705771921305, -0.003861187603813897, -0.006370450548467861, -0.0004634792812128382, -0.0013732164035084235, 0.008232559569991865, 0.00883261602031702, -0.00139221199202017, 0.017308638047681575, -0.0012602402336535814, 0.011925282825846276, -0.006007027823795558, 0.009614032340752447, 0.0033505641913240142, 0.005296370482832038, 0.009889635335389429, -0.004353997299635554, 0.014145587494295099, 0.015090234089579697, 0.009043555365034567, 0.004025403385022997, 0.009621198385876708, 0.022800531320489523, 0.022604110885051428, 0.013239190911184827, 0.019404666044242062, 0.019016467888830695, -0.00219130335167116, -0.00034600942097938356, 0.01901907695642336, 0.01307736252415544, 0.01840903041449429, 0.010888609710803111, 0.02281467504576418, 0.004916685066244822, -0.001845471765890087, 0.0035266259928210535, 0.005441572104477059, -0.004402846020759914, 0.002997948582126879, -4.682170377589921e-05, 0.013235159250937035, 0.0001459656327609194, 0.009889124010154269, 0.0031572653631152317, 0.0015210594307087646, 0.0076102092921460735, 0.01700328350135021, 0.004607422304695638, -0.009396920481224974, -0.009975250711523031, -0.00808710045686978, -0.0043082577731683065, 0.0068222804796230765, 0.020314416855323935, 0.018643405745283448, -0.004382514272825553, 0.008504009298964527, 0.001387735529267901, 0.010571198820323322, -0.004867582175667169, 0.015120365338786983, -0.0018022614666530945, 0.008913780862657424, 0.007387143758997637, 0.007290970978705769, 0.004750457285069581, 0.01566137744487164, 0.0278497667485891, 0.01546424080923352, 0.011048256502208819, -0.01200090329705631, -0.01987641828621083, 0.0032080340953335555, -0.00038970460980191745, 0.00060312437108173, 0.004439074263201882, 0.006422911953658513, 0.006905386411663339, 0.012959606318729961, 0.00533474963112695, 0.01337981704167013, 0.0014565350125953422, -0.004177498333087928, -0.00972773825796833, 0.01335825160885116, 0.004404141520444999, 0.006310447661812439, -0.006430212503883674, -0.002096858223906145, 0.007374937953852768, -0.009571669294181712, -0.01723134120746684, -0.004031793355165472, 0.000865471233098475, -0.00861617230999065, -0.018207892611124727, -0.0078005758846856005, 0.01259080138421604, -0.000501590468097393, 0.003936948396337535, -0.005913833709445119, -0.006906872758502857, -0.00034927215624493314, 0.008086454897649467, 7.694203058966853e-05, 0.010375149738636964, 0.007199653917338272, 0.005850056343227506, 0.005507785994942319, 0.012043885507030845, 0.003895116833283705, -7.394509629276641e-05, 0.002034044115204574, -0.0013018756234254966, -0.011166792448435348, 0.006126686414601984, 0.004489207390354346, 0.01451813324080928, -0.010604781319874986, -0.006170443970085956, -0.0028891007582759203, -0.0019497253618264974, 0.003172584923111479, -0.001348769874177364, -0.00430638545958424, 0.0008503182711550033, -0.0031185341133872844, 0.008735968224512383, 0.00771833099712837, 0.004382326028823707, 0.00815335965478398, 0.014910608812037584, 0.005311222808270259, 0.010289303818896556, 0.006061531948393734, 0.013776545316711849, 0.013094576200619927, 0.00792671420426851, 0.0005921423419529284, 0.006420908840454867, 0.02100495911368888, 0.010702329963056471, 0.01074685959249516, 0.002326097137525424, 0.006740334908594417, 0.004728832821046168, 0.002227694551252, -0.0008771407036076238, 0.001803628371981238, -0.007461886916148381, 0.015115566268848, 0.019285953138735743, 0.004688940482462842, 0.009021341950860387, 0.015739838570394113, 0.014331677639938202, 0.009554590112018908, -0.002057380644096246, 0.005148754820575265, 0.021017203010565786, 0.006507208563384038, 0.014402690506512987, 0.003588979879935849, 0.012807676601626659, 0.018461556399077837, 0.00838698069751963, 0.00632331743962092, 0.004528367941769962, 0.010402609810532024, -0.0011406939892747278, 0.003909753868112567, 0.004642997157951456, -4.839905159123328e-05, 0.004281344331973809, -0.0059945643904294015, 0.012068770378292782, 0.007033781912916912, -0.00232799746334871, 0.005358630013578728, -0.0024702784444003696, 0.007945158280607701, 0.0032270165340903515, 0.003157451540527223, -0.005915534031873416, -0.0013391129632768135, -0.005952209230943229, 0.004833152489471781, 0.004126657041548349, -0.007713108532586676, -0.01003138466540773, -0.004363594532811968, -0.010905974024662663, -0.01563597298921761, -0.009606662397506528, -0.008224888039323459, -0.004749715097683852, 0.003962696704444824, -0.017840848923367052, -0.02385836290580966, -0.02878735756619903, -0.018242762058860655, -0.019055325904517077, -0.013848344243909096, -0.01995608573316303, -0.015117665809281117, -0.01352814445054685, -0.00793659574143009, -0.008767773122824738, -0.018150356978563077, -0.019243128540413133, -0.015006595303557193, -0.01949695526657976, -0.005560355565027972, -0.005358347513636735, -0.010261522265719067, -0.0010760594713667161, -0.005689149917833148, 0.013922938757895405, -0.004410426519454009, -0.013631265500570647, -0.004149111536273872, -0.008808379494885261, -0.002266109800989239, -0.005519358561302983, -0.001663426623753377, 0.0015803664831279267, 0.0003950183048656739, -0.0063048994133941706, -0.004695460385370456, -0.005006165340620796, 0.007310473246981597, -0.00731868552446896, -0.005588442602398997, -0.0013571596736134056, -0.0168207286376726, -0.0056171135035116325, -0.009999839056547433, -0.021205028789627125, -0.002503047368943131, -0.003304580968648904, 0.0003787826475021758, -0.005015864645168288, -0.008576897862130523, 0.006748056341824286, 0.005445712775188021, -0.0018138013184988474, -0.0012741201431194949, -0.00826915083381287, 0.0009774056092424581, -0.012120641188048798, -0.00883003132652731, -0.003673996272908345, -0.017105095007145684, -0.014990966002139314, 0.0014853872965285052, -0.014124758665919956, -0.00714119145370343, -0.009607547819336454, 0.0018635162407376826, 0.0009128093741262748, 0.003004575972042654, 0.011472094204505944, 0.0026362907812860557, 0.01152015842339481, -0.008865845498223281, 0.0025573114373453098, 0.0031369668237401804, 0.006961221481662752, 0.014652906217668857, 0.008074633637325888, 0.0075760343006009475, 0.016710639569832885, 0.0036131624361264983, 0.006246288233199246, 0.00272336856659754, 0.0027017858451692783, 0.006484605681803658, -0.00800873528669979, -0.001586033897948564, 0.018129248604985763, 0.01315145468630685, 0.010803694141264912, 0.018210953310284186, 0.01976462783140212, 0.006714368323196345, 0.025718252522742534, 0.028938526674893543, -0.0004165246328753869, -0.006967443016938458, 0.0031394863792686524, 0.005093984641024559, 0.017888360584775196, 0.009769241019627287, 0.012621177880019981, 0.004165062027997749, 0.003110068174909036, 0.0005473031044728062, -0.010291612279692905, -0.0005717654655584626, -0.008493196938396329, -0.011849520304505243, -0.01306774916024404, -0.008907736076349494, -0.010052978183592735, -0.011930106621640133, -0.005050884130029941, -0.01153568565175474, -0.014616287621416637, -0.00764267077040706, -0.005171895135481249, -0.007748225335768035, -0.009246304930905594, -0.013519065837181116, -0.011505434039220339, -0.013293875499535994, -0.01759511997930916, -0.014960966041877445, -0.013871062337167082, -0.007797165204213164, -0.02136875146121706, -0.014071408459235367, -0.019068337331539963, -0.007678300831089806, -0.004936418114474272, -0.010521680033972799, -0.00550190396187006, -0.02777941612519105, -0.021289010534675412, -0.01059722502232076, -0.018147291247287495, -0.013583541132120873, -0.015296254786323087, 0.003409916769293546, -0.005225821449084188, -0.007633479876771849, -0.008122915845966668, 0.002050780695346661, -5.7018929461316596e-05, 0.003030293190222666, -0.0017533204773177513, 0.003620909860316995]], "intercept_": [-0.0008079856845686119], "n_iter_": [9]}