{"penalty": "l2", "dual": false, "tol": 0.0001, "C": 0.00447213595499958, "fit_intercept": true, "intercept_scaling": 1, "class_weight": "balanced", "random_state": null, "solver": "liblinear", "max_iter": 100, "multi_class": "auto", "verbose": 0, "warm_start": false, "n_jobs": null, "l1_ratio": null, "classes_": [0, 1], "coef_": [[-0.001296043264661572, 0.030165835366280903, -0.011699652935239814, -0.04186301425685957, 0.02250407426586856, -0.04720518066355137, -0.01893097460524514, 0.01850152464120337, -0.0418395444383675, -0.027914088279124855, -0.02271999907989193, -0.03498017115484393, -0.017786604173910942, -0.02834774097619024, -0.028130189215470315, -0.048454661643610966, 0.030489880965643267, 0.045268580927774714, -0.010591468070753864, 0.011887882665757006, 0.013683424846063151, 0.024377996269094607, -0.024387064490208103, 0.006222343517569264, 0.004518500121591132, -0.011614040897848536, -0.0006199029141332331, -0.014967516991931565, 0.01829956810190734, 0.027356994683190253, 0.0038436761084905003, 0.05829816720154591, -0.01784199420313939, -0.04892890635546045, 0.02395848106399982, 0.037855687231747676, -0.008285994391836861, -0.004971013603260399, -0.029143755497967994, -0.0009972786458689025, -0.019268653049200758, -0.024615945867084543, -0.033413249983513124, -0.053374706221230965, 0.016546805750468827, 0.01073210096551893, -0.008173855797306026, -0.0038412102475100874, 0.03668560315171068, 0.013643211973619165, 0.002118500831309588, 0.026962668113832043, 0.03536301118643021, 0.027781634187181815, -0.007969479106973794, 0.01725237678614994, -0.005422435729465534, -0.023355896210276703, 0.042937589890263396, 0.010829645300971413, -0.0074883322449792065, -0.005380987650369176, -0.01532525489595912, 0.008029825832360296, -0.056794196257981766, 0.005296297708242031, -0.03190727108556275, 0.006471939170768649, 0.016179469309434095, 0.0103339201028303, 0.01547578767040905, 0.019042711238985214, -0.025641808222882666, -0.018889766124786347, 0.036772221765231865, 0.0046111236916853175, -0.04708892307311398, -0.0021955542543481373, -0.0007907906790350876, 0.015382737273565579, 0.06521996133624879, -0.02473061509476814, -0.025432868959572915, 0.0353547465565158, 0.051082131693424244, 0.008122588185561927, -0.0018733137037651353, 0.05184841215541065, 0.006345286677480681, -0.011577601543527716, -0.003488334931176039, 0.02633822033558098, 0.005832411785060114, 0.0037986372263522977, -0.016056978067111684, -0.04740730510849076, -0.03382982199324952, 0.012445185304686399, -0.01413717083373887, -0.01368253829659151, 0.005855753310530849, -0.012134232038074962, -0.03050389798537863, 0.05483927699488729, 0.03941713587372174, 0.005926480009396567, 0.01673138932255454, 0.04178648677158051, -0.009494860837486897, 0.019375397889519842, -0.04182136454173167, -0.030337490319842345, -0.06151254786154536, -0.03999968184026245, -0.0031334823769956547, 0.07485239689421196, 0.003941320825356301, 0.033383085963505414, 0.031717818068168396, 0.04757555565791345, 0.004371729463728055, 0.028999107564774307, 0.04679173418742849, 0.008848822674093364, 0.007770740324574589, 0.01656428037646931, -0.04213605591374531, -0.03324968408647007, 0.04047530104606215, 0.008673054805191498, 0.017913984596558213, 0.005865398511291277, 0.008688453501102, -0.00579639361831318, 0.0354277822110465, -0.006248523209023807, 0.017093228669618245, -0.03239840638667824, -0.028738829159629598, -0.0013012683215568217, 0.015175680194179086, 0.02197340064513267, -0.03416293635507936, -0.050914734368047214, -0.04581581857025956, -0.047998763553257356, 0.11599131316884705, -0.03071517473293722, -0.029529410824153248, -0.024834221219015608, -0.02491778758431764, 0.003189805166017038, 0.010010978267679545, 0.015401285485421103, 0.010004424261650276, -0.010552047624315941, -0.0569149629977769, -0.04897932857735213, -0.00263345197348246, 0.08714116755746844, 0.03011431873717284, 0.00344837134441724, -0.02147301765305896, -0.005655186364667161, 0.0039056959215740114, -0.011642650814379174, 0.015907355279295692, 0.00035495538469474823, 0.0067127328820423705, 0.010548728396179253, -0.003759156060070623, -0.0066323235362694055, 0.00881960607947312, 0.017060467435945966, -0.016656954261562173, -0.017029927445328566, -0.00796005918925552, 0.009642045905275442, 0.04098525826218048, -0.044472317254807166, 0.018911339282830897, 0.00867815749220483, 0.03568087358683422, -0.04258499103374254, 0.009261803958268089, -0.022257151149726394, 0.005240940285695115, 0.024349766675180313, 0.005808081539191022, 0.055569190759039926, -0.018300973701570456, -0.015209019676297026, -0.0005177989517839315, 0.0012887628469839645, -0.003055232223865051, -0.003980951847832436, -0.004376696946320189, 0.01853380724306735, 0.03022240436017023, -0.014522104842936086, 0.02555802704530754, 0.011926580943658014, -0.03561032332134706, -0.020570063249609128, -0.0612639411597392, -0.013900278236240557, -0.020974524952714037, 0.010761868497761947, -0.00947522637711975, -0.0029913121795074773, -0.049525469593294597, -0.02446967099739896, 0.009401808527475372, -0.023260630989554398, -0.013536221981637895, -0.002334195045807313, 0.01132478432995839, -0.02752693691531128, -0.012641966332276561, -0.047832470077720096, 0.005158608929181921, -0.029960514896397783, 0.005077629046674574, -0.028830458386484657, 0.0062491371368062695, 0.04529372613194059, -0.00464066821601255, 0.03201047480328969, -0.00035942038928563633, 0.011776170738711081, 0.030415583688824153, -0.014757229794447976, 0.01958575385696374, -0.019063161991190194, -0.0038609975764754994, 0.024921795109188544, 0.018148737259322097, 0.03828034868106389, 0.022388041724998024, 0.0511785889439866, -0.12138250008015487, 0.029644079777411864, -0.028113705250077514, -0.052170680478479205, 0.007178933236349665, 0.001763255635817668, -0.024940454337450745, 0.01676543174536844, 0.002217543380971688, 0.031165055564875994, 0.012755756540113633, -0.009776423247112745, -8.233421862419702e-05, -0.010333335954214071, 0.002659250702881671, -0.0070399820016313645, 0.02651071424959133, -0.008873696964141654, -0.01650121194542359, -0.01582205144736436, 0.04363806628564121, 0.0011713681890491053, -0.012373425359972903, 0.04873660857425332, 0.021204860488935197, 0.020261938036106257, -0.015434463500728975, -0.010892163856164113, 0.03621436792559168, 0.029286168526817535, 0.046351675348890835, 0.017728156770095285, 0.011613153291292333, 0.021801062426126592, 0.057777475137717485, 0.022483815783405584, -0.001763252408788899, -0.028928662107481764, -0.03444645879040235, -0.01504657728248848, 0.0045411268690951035, 0.013459115603982002, 0.011044167570553591, -0.008884321223500727, 0.0077140468850956925, -0.003508243582482176, 0.041463792318095445, 0.03524620017154971, 0.0052548016613346415, 0.009317322541579413, 0.026668953196659944, -0.009877256535484847, 0.0663960843582046, 0.07781117802965168, 0.018078998997165013, -0.025947680653387397, -0.0004364435785991468, -0.0038098453331209775, 0.010194292253599002, 0.02390046648807247, 0.005236831749384206, 0.015126084682849456, -0.011812590066828409, 0.01100046754823374, -0.02036861604711405, 0.006542844828393813, 0.012260293884536349, -0.040858073483795554, -0.023785916284674868, -0.027656000521023377, -0.04956235015401741, -0.02948790949373756, -0.03124704067257229, -0.016723191164644564, 0.015925670631816703, -0.0031189985653380754, -0.011138781202794245, -0.022389075530190105, -0.028102605727346467, -0.009701051984586737, 0.050679642320994894, -0.007427378887187792, -0.01965281054842582, 0.02253464366267536, -0.00857139056180206, 0.013080736922468637, 0.013621089846476758, -0.004188814539316408, 0.038258283207830666, -0.01574784185031333, 0.02449058912882265, -0.002381810829357893, -0.040909063139007454, 0.0046897015809973415, 0.007058689720875326, -0.009951454454330134, -0.009904032538220404, -0.005574065100797376, 0.06482023453289416, 0.0165993818173788, 0.010383645431205847, -0.017209721136491555, -0.03022654609943591, -0.025561781082556898, 0.007598248332070214, 0.039542832371831274, 0.03227736115922081, 0.047330221527550696, 0.0025765864830099333, -0.02265123887014776, 0.04054675604669682, 0.01948903836918654, -0.027122571919340505, -0.00998500252162643, 0.001235660033264565, 0.016072002852579023, 0.041936726902238174, 0.04569699702121515, 0.014439588909270114, -0.01780525332611898, 0.026550072705884043, -0.03278240408791394, 0.01036671879105764, -0.0060715535003559, -0.01477477618037936, -0.025533746000034545, -0.003176501171894027, -0.04132154806640663, -0.04192134127896895, -0.011015828098162195, -0.038017058852452754, -0.004161583614300046, -0.016960805064481138, -0.04639523004650512, 0.02291732143798134, 0.007909403741637951, -0.007097945415588366, 0.01834449579998199, -0.020322663913497067, -0.031014236043259702, 0.030003923246213704, 0.029957248974399303, -0.0222305720730861, 0.025700310518175406, -0.01922463979267416, 0.003425888774847314, -0.03417736090528138, 0.0007478575378366119, 0.018724671904553312, 0.0248704914762008, -0.006334428228310668, 0.03331557023452488, 0.003911698675217564, -0.0026042156748030862, -0.0050365164556259905, -0.05005573847202834, 0.017814525098578424, 0.01929586630410171, 0.016997083709483288, 0.005156071416803295, 0.025897172252124057, 0.005334615385024296, -0.016240300054676467, 0.008302461084577085, -0.006369670222438388, -0.020479217191914676, -0.021993530941935055, -0.018103361327729668, 0.01219271248143069, 0.012726509129849316, 0.012187757003903472, 0.0064378284643488186, 0.00788131450315412, -0.004000958057315644, 0.012941336930214521, 0.0336385495398199, 0.010665118556376727, -0.02854873956967418, 0.011048349739962502, -0.01636903381363223, 0.0006615916328669405, -0.006243812829566382, 0.01327691400388327, -0.010258345830763918, -0.01779729912623402, 0.006930140472602353, 0.024756791540506976, -0.012927848711165054, -0.0022053202876840625, -0.00707625472311578, -0.01214016828662892, -0.005053965342760612, 0.005409252732934022, -0.011012207238136435, 0.027715747435684477, 0.009762601541769398, -0.02137253491738835, -0.004095212923068757, 0.0036651750940069495, -0.0020525549474066976, -0.03173369612901748, 0.028465732138483992, 0.01684494374333494, -0.01391342023201732, -0.011532947140786355, -0.006375274554477561, 0.02149548021839062, 0.011824982765784416, 0.011340695362661666, -0.009469378972341095, 0.003964322460257698, 0.011256342114509276, 0.030265029285293735, -0.0399693518429841, -0.029729847852716845, 0.0015462801226450104, 0.03740133354369077, 0.022562799057293498, -0.0011949742719146678, -0.0009579523971059962, 0.012367943562620802, 0.004559073986910298, -0.01509377873384189, -0.007446362488374637, 0.04017413410454192, -0.0042657144103297375, 0.02826013373151737, 0.021063923100574772, 0.009644502345069432, 0.009003556108275287, -0.035431732333113294, -0.03416125110554614, -0.007979727970814018, 0.0076686037319632005, 0.03326397154614533, 0.01716711574963034, 0.007574995264762058, 0.005185347846295856, -0.004506703982654201, 0.03339193712739922, -0.014459723652059022, -0.02936287778184373, -0.03455341656509426, -0.011727175868008663, -0.018691178639211402, -0.05228998933892469, -0.03843323922141687, 0.03865800525050466, 0.04322450487022814, -0.007764981769798534, -0.013267335264279057, 0.007860645147547784, -0.0023208732479535763, -0.00177691997371786, -0.03166775378764033, 0.028720090266329833, -0.018838892007746116, 0.005292997643961203, 0.02218398895096802, -0.03030559419587881, 0.0003274725957504743, -0.034389847828016115, -0.0167290518877076, -0.030024773998652242, -0.04979391197325705, -0.02062531382527254, -0.017550808848634164, 0.0030027937663785038, 0.011254604221108487, -0.00851581672199955, 0.03796994228411173, 0.021743284497458177, -0.01719235877730766, 0.012015463346334913, 0.014753307808075095, -0.02175860868126283, 0.0374446522321368, 0.045887060767719756, 0.013702715081392152, -0.0006582978335888703, -0.051396461505245246, -0.01750406963326714, -0.023059515467868597, -0.05234336491551166, -0.016931490016554467, -0.024143718949437742, -0.016231864590908397, -0.00018155163762368498, 0.001092338726142849, 0.013124112510225196, 0.015296989641582647, -0.019738383798610284, 0.0025261169935914085, -0.004540857409165797, 0.007058015197794101, -0.003148443576732195, -0.039867816470272585, -0.02493574436766635, -0.022394361830215714, -0.0366977237482153, -0.01329331281658014, -0.025533858756251252, -0.003231647077397392, 0.03520311384788009, 0.004469605408935133, -0.0020457488546675867, 0.035914965512563554, -0.002113196191827907, 0.010421378145158266, -0.0007214967392460589, -0.00263298442933562, 0.045541022862336, -0.0005040519021171443, 0.04936917120215717, 0.020499846301054978, 0.04450129897182662, 0.013129035982902776, 0.013202672243575433, 0.0197393574185394, 0.01691197497421942, 0.0016433485026633309, -0.0068393260193946965, 0.026398216380586145, 0.0056797057891710525, 0.023868944626801565, 0.02608426157731421, -0.020055360368477857, 0.03520806935694738, 0.02173035239995305, 0.020674449314284325, 0.018106057868802213, -0.015251881447429666, 0.023266384711154792, 0.008507937447470389, 0.004545224509563361, 0.002158190935090213, 0.026664228250235157, 0.0313644263555972, 0.01282445171221689, 0.0035477884623023523, 0.024458739347846238, 0.015828384417034783, 0.026021078425068542, -0.03028391721293579, -0.044696408143171384, -0.007702240436791511, 0.012075755535787063, -0.01912028156055382, -0.026147395527243544, 0.013447267099079306, -0.034365088480102154, -0.0016483259750133918, -0.019837975741045063, -0.024327752139519796, 0.006775843183004108, -0.016126091729765996, 0.037034250909374664, 0.002851712076212486, -0.00940534991587313, 0.017364680120828205, -0.0011134634362717601, 0.0071529490160070425, -0.002237815381497295, 0.019424881058668433, 0.0012474969651476507, -0.029179941903318893, -0.029249182384600034, -0.044572793288899445, 0.023644418928603035, 0.013128249800826164, -0.0058037279427983835, -0.008426279111541908, 0.014816277014839842, -0.0263751115476448, -0.025481241225117704, -0.008230048085619453, 0.025119919126002695, -0.010030850992351337, 0.0006703035876628533, -0.018799798707305443, -0.004359364794433013, -0.01789032273903061, -0.011004887799531276, 0.007035330361518255, 0.03590348009743769, -0.026372565792020672, -0.015444383034738931, -0.01108935045401106, 0.01024186676914506, -0.004410420078341416, 0.03242276683208721, -0.02197859323695057, 0.013027747215177767, -0.022519407377277135, 0.056317596415897474, -0.02825900051267119, 0.003756714780500005, 0.024107374255503994, -0.019660632865019106, -0.03603908361108192, 0.010925652809600176, 0.0007348574615167567, 0.007174176332340939, 0.017955847400633204, 0.03736591511513565, 0.014603871140898237, 0.013855201812348077, 0.02643355664659899, -0.006302129365586683, -0.013051100408740243, 0.012140796860268865, -0.0076668231631349115, 0.0172690099934424, -0.0025341795416021495, 0.0004326871131647811, -0.014664150441625959, 0.01837466241019814, 0.028153726097511038, 0.0366190839125161, -0.02058235107587383, 0.0022118256820811127, 0.0004270165276268112, 0.007012263307492581, 0.011901137260147816, 0.024593388989700593, 0.015384835725475712, 0.015457170775589642, 0.009426041601932235, -0.01781933589215087, 0.023558617862606716, 0.0259339253905024, 0.01088533380233451, 0.03673638259936097, -0.012655816100867941, 0.013831720462008985, -0.018829481818703253, 0.01399824992270141, 0.018023181903963497, 0.015074407158270704, 0.0037357123791657266, 0.008032489606870452, 0.018491893101000283, 0.0017653707350488448, -0.009589197891194702, 0.001767389969133371, -0.0449525813550193, -0.02364229094172567, -0.015675586213819512, 0.01152636785891, -0.012623808737077583, 0.007283082041616496, 0.011030799309284486, 0.00956383454940974, 0.002091898302006781, 0.009849888178194816, 0.013290578652558024, -0.01335601372103851, 0.05900624983450358, 0.03295697278028132, 0.01077853398180619, -0.0031786257329876823, 0.02142862307086168, 0.01188672600820235, -0.008867901347383713, -0.014409789042642465, -0.014845680836219583, 0.0047038100426849356, -0.01105613539643817, 0.00038134808000907835, -0.01592434445127498, 0.006586347448551638, 0.002088316789152825, -0.03206070378621887, -0.016105149932068196, 0.030381262848575844, 0.016037396065416036, -0.01119844113025111, 0.0014480333505243943, 0.001648092265488826, 0.04709712244355295, 0.015238279858402645, -0.009333265087118302, 0.04318006415636592, 0.01333504972958424, 0.0219746560891655, 0.0021608420719371807, -0.0102053353634052, 0.018674043629215726, 0.004714571361880951, 0.014029279724840017, 0.024687212453894172, -0.014447060590466491, 0.011559559856560007, -0.04257715811403191, -0.05277881603456243, 0.01733937038390979, -0.03161616429392594, 0.015484258671280293, 0.0004301146645227558, -0.004174814321159761, -0.04006750400619955, -0.013074591994737247, 0.00712213282343562, -0.004143564152857893, 0.05458693853329163, 0.0015396235015107864, 0.005334964712202617, -0.0055259816517050225, -0.015103024761452989, -0.010686982567415588, -0.04266762271562158, 0.019554551401027173, 0.0002269581117760951, 0.015285288123196275, 0.018034503183611175, -0.00255924797037776, -0.02966918245875736, 0.02721719121331414, 0.06172287343258544, -0.0018873086352967445, -0.011507714139230605, -0.013176786007610245, 0.00040480581631182965, 0.02773032724481444, 0.035972441406891466, 0.0009185256817720956, -0.002956961034067598, -0.005236918194223932, -0.0031202901269282144, -0.043804121160468494, -0.02327272718461755, 0.009953173217762052, 0.011769978861227144, 0.007661407233223574, 0.015959483978130278, -0.004888352213186407, -0.025337879617530798, -0.05878194073308544, -0.014715244361329548, -0.043110892292145375, -0.014428758371177028, -0.025318508741501853, -0.023144380363656025, -0.04074407356021782, -0.020156523717810244, 0.002059896640510598, -0.0027683955913813427, -0.03640995368391796, -0.012602299558460915, -0.02176353525174506, -0.006063263651743227, -0.016745517603446097, -0.01606586569732283, -0.02103495859596889, -0.017374526141823804, -0.015119594426561377, -0.014104446760970007, -0.0028841584259427784, -0.007785058903525279, 0.01665105452748636, -0.027616140391822627, 0.027936360140867842, 0.005308986959794821, -0.006015829619320047, 0.0001156993095339851, 0.0072056474310679035, -0.00545493763084443, -0.02231270317173223, 0.00833790167846292, -0.01292538565585027, -0.03202242396539888, -0.01564251939171486, -0.0015546745376229243, -0.024205058466213698, -0.04510830960906325, -0.03925748863021224, -0.009632684083319023, 0.00108689923495443, 0.0035174738687313704, -0.00829872528425498, 0.01187755652282514, 0.0001175472548015265, -0.004446793208927723, -0.0060767604898094825, -0.035307994640459174, 0.005147238039883316, 0.012412641907187109, 0.0015663053229761025, -0.02129949022269785, 0.005738347958673157, -0.01469291522907177, 0.010419630393869278, 0.0035777611728792257, -0.0126263188226131, 0.008542025534109076, 0.014543813686472012, -0.016000409972276777, -0.018620326676639525, -0.026574293820790344, 0.018287406466504494, -0.017756366791275704, -0.0162240563653696, 0.016837842700052563, -0.016879590222510055, -0.021316979039792835, -0.006467303739242279, -0.021769952436107257, 0.01196671028487704, -0.013368450985141396, -0.03070547586588995, 0.006230250011097729, -0.015207878468989711, 0.02663224002278323, -0.03189573877322843, -0.018552641302034916, -0.008715060853881702, -0.013493601946998725, 1.575836983058216e-05, -0.00829087793029325, -0.013933837915878768, -0.014697173357775328, -0.05932023387076128, -0.06578149990112432, 0.010470746086626114, -0.0033620734319506802, -0.0007038325064206536, 0.002408704077833602, -0.022738465234859305, -0.009768775093598546, -0.014950572586544678, -0.032295110510784854, 0.010245201729649281, 0.06423370570578255, 0.007115482839942671, -0.013938359019733034, -0.005725702451827803, -0.0021088269804341643, -0.010631020959933513, -0.005407132186654928, -0.01176795457971887, -0.026684930258151177, 0.015774812318910092, 0.0038298670209622747, -0.002792652710061365, -0.0038353044856505427, 0.01777331419683646, 0.03555292723220273, 0.019904103121466007, 0.011081058024049099, 0.047188127455150566, -0.009156363752740867, -0.01488016753535582, 0.011827219892626101, -0.007243496985129191, -0.009182648018925208, -0.010054200243808297, 0.00407600562152837, 0.009404572482781499, 0.006092128583916579, 0.004487041111698136, -0.006879471855204507, 0.0015137017245630496, 0.004785770779498801, 0.019392207517092266, 0.009390510913452853, -0.02397340156212073, -0.00457825359410819, -0.030008554700791907, 0.01164742055977652, -0.001270761132285335, 0.0062152909492254995, -0.026867983403771802, -0.008813360882722552, 0.017382010202938437, 0.011944613432615285, -0.02665471061211939, 0.004538286979476233, -0.006700485863705877, -0.00692706297902705, -0.020569620643107578, -0.008977824485601242, -0.008479288129477016, -0.009796256190693738, -0.011653025077102197, -0.006064829130419169, -0.0018618172101104418, 0.00460149386432967, 0.03423635683740335, 0.03229337108411239, 0.02253973585162102, 0.006938084550437546, 0.01128673878393263, 0.02817649701991859, 0.025942566096997913, -0.005438633893220401, -0.008741733335688421, -0.00466416541009368, 0.008452107031619046, 0.00933831010619439, 0.014376807700713283, 0.01695468293818923, -0.025603289145940993, -0.036100546558382914, -0.004362067029716943, 0.024709157844193183, 0.03287706728926643, 0.0303314048342393, 0.0217104958293225, 0.026851972524112065, 0.010944415679584, 0.006225052198522738, -0.013326352318766822, -0.00574979363853191, 0.0008919774593996825, 0.0011708494075206078, -0.008093222397597206, 0.00647856576686908, 0.013083340318266742, 0.0022958116767659, 0.012001060645246048, 0.02200764324686373, 0.002223896759565603, 0.012349910554523634, 0.013159386444377379, -0.0030943316776569814, 0.002367858732767977, -0.004037364124727414, -0.03306165198342239, -0.031246839846181765, -0.013739325877063831, 0.029528784460001255, 0.00023324864649673906, 0.007777589486229941, 0.003091764436782001, -0.026445657618257293, -0.013970413352905211, 0.0036985038823335176, -0.005222781816184476, -0.0016004225915487956, 0.008688546049383846, 0.04364256662765495, -0.0024665704508595406, 0.02160336787985571, 0.0027835414008340956, 0.01933112826347734, 0.006745002437535417, 0.008309203403042661, -0.0026141978708817144, -0.007747479518022031, -0.01872775335564373, -0.05073669267131973, -0.010043474777483548, -0.010290693498554106, 0.011848900879015148, -0.0016915657879872815, -0.017286443682632845, -0.004743453410790642, -0.037095266475619275, -0.022797658366683366, 0.01621394494516913, 0.030231722685141602, -0.036568718581199394, -0.031331109411246255, -0.020447949784566776, 0.003017172190439463, -0.0020593452576737697, 0.01535746863944093, 0.020230757003146565, 0.006471050303012663, -0.004836371663025784, 0.02318978279765, -0.023094017332161744, -0.030221345462534566, 0.010983944721876445, 0.02000130380559292, 0.01488379001536063, -0.014818704928477798, -0.02150622541407891, -0.014268169585577549, -0.004464888124603206, 0.009965407481232267, 0.002494220974123165, 0.0030905592745184927, 0.000418373474162664]], "intercept_": [0.001154867708089132], "n_iter_": [5]}