{"penalty": "l2", "dual": false, "tol": 0.0001, "C": 0.25, "fit_intercept": true, "intercept_scaling": 1, "class_weight": null, "random_state": null, "solver": "liblinear", "max_iter": 100, "multi_class": "auto", "verbose": 0, "warm_start": false, "n_jobs": null, "l1_ratio": null, "classes_": [0, 1], "coef_": [[-0.13076984101277536, -0.13028041031520982, -0.13210680413461134, -0.0935182311649055, -0.04631776156562544, 0.13230464226012598, 0.12092499780472622, -0.04688616150259623, -0.06184055477167561, -0.034992192203125015, -0.08022464765113509, -0.059529226089567254, -0.04366379741605527, -0.19733629968946237, 0.05712408770520981, 0.059362278982011706, -0.17078785718077527, 0.056725035549031744, 0.09666174036620778, 0.07797956717421095, 0.02564514101401936, 0.04689421966755928, 0.02915303982054098, 0.07099263323064364, 0.06497325193608759, -0.07397790515178229, -0.11151312280481973, -0.08263583562956994, -0.1286228290800455, -0.11406040034100584, 0.14056754481849648, 0.14935196756425623, -0.18393955470384865, -0.11162159489869282, 0.16174302864906223, 0.15448596196912856, 0.03878201766162831, -0.0033441848584181183, 0.011295804503411555, -0.0034715959656067665, -0.01572306778743147, 0.014851151100087905, 0.012456675317679671, -0.00530223468590716, 0.015941981351755966, 0.02946821348360364, 0.05487394663301517, 0.05337099460051574, 0.07967225400413842, 0.06941580946496748, 0.04647004466228769, 0.0009639196768835239, -0.05714069396068708, -0.043453862150316956, -0.048208698336919646, -0.0036071795117615306, 0.025092904360078338, 0.02329460161651088, -0.040256765059762896, 0.04770040891282279, -0.03728692084005701, -0.04042049838214284, -0.057897942443634075, -0.03767257129209108, -0.06918508884427803, -0.03531667155305439, -0.02156536374214, -0.04709162155900223, -0.016394795918295242, -0.008506162007440128, -0.008136654312303378, 0.02256489022089316, 0.0009399171249197607, 0.025605321185048675, -0.038623702197144234, -0.03958412052811382, -0.004747476775680242, 0.032869075484775315, 0.023535235758591323, 0.03142459762926315, 0.03426614214652342, 0.03366174839976681, 0.03334112894726032, -0.04853140060793739, -0.08868825640603022, -0.006687662991604998, -0.052458451164115294, 0.008405518876885629, -0.004653913922148261, 0.03617503908759165, 0.02310658919590148, -0.016134364165636024, -0.013098842773186603, -0.028322517693949858, -0.02794810106743447, 0.03135935687607353, -0.09287990368849892, -0.0012313457516944198, 0.048880040245651415, 0.05172264045612844, 0.02270965753098892, 0.0187901219128713, 0.014646044818317903, -0.07544894008809853, 0.019687140979517393, 0.036760113091018606, 0.03250537199733629, 0.0069277808012176145, 0.02601058540455497, 0.012122631366836561, -0.09305057002191469, -0.0617890456376096, 0.01953780577107273, 0.005431255011970948, -0.007454652494771182, 0.05538742647445879, 0.07259799934839413, 0.07803674592014483, 0.051559207679510576, 0.009242551590924008, 0.017306712707051256, -0.002439160582195364, 0.03336386715173989, 0.033912855395434253, 0.06218331595432909, 0.009381883003921152, 0.0020896153256982257, -0.004385227532437477, 0.0975138404654762, 0.07113915036772289, 0.09137030755173826, 0.05465553912028237, -0.011605956369479118, 0.08267688530622791, 0.025964548300472765, -0.026159860709046315, -0.041618635247236906, -0.027446028200552714, -0.028935250613690042, -0.0440830515577251, -0.08482745978179013, -0.12348270339938222, -0.024229653945712783, -0.18117740748192743, 0.08775006140256804, -0.13400913016630162, -0.05652447258839388, -0.06696653904192094, 0.03228244291050434, 0.010611842330259835, 0.03832322070168385, -0.025385228037349706, -0.009490314896076858, 0.009287544539179873, 0.033841870638056694, 0.023435167847128954, 0.02801735155653646, 0.006059916980394217, -0.08651576476840962, -0.07496901854560664, 0.014206782291228445, -0.04810265157715442, -0.057223831044181404, -0.05800078242725073, 0.00429266189134547, 0.027290481328572674, 0.007586732482505882, 0.020699527038266823, 0.00880151159124064, 0.040423831330320084, -0.006306609429662498, -0.002543628838655702, 0.01913395879426966, 0.021665686897829935, 0.013135342054115368, 0.02269509096796323, -0.039688283561557736, -0.03404749424815085, -0.05288647635024187, 0.00800639100181141, 0.023787822092929303, 0.03595448446108623, 0.03983098842730576, 0.040392276955654664, 0.028229953598530172, 0.07740051034409655, 0.06513303589337789, 0.06703874470439819, 0.020883644993419714, 0.015343118172310736, 0.008624804056051814, 0.0013415018272254669, 0.015349130720908084, -0.010281979840956646, -0.02582430368867992, -0.030433421367604824, -0.026377268125239117, 0.05092606851278684, 0.05149286636241176, -0.015025698483412918, -0.004441108055709176, -0.046850059949638076, -0.0396411233963215, -0.09786295565318175, -0.05303827532515955, -0.02453974791314494, -0.02954378264022091, -0.0032546271740245573, 0.0072490007743367625, 0.002976143274925916, 0.00045127127173605775, 0.0014679354199162319, 0.04641689940511398, -0.00943480363911756, -0.020832537197199286, 0.025614223064789294, 0.04602628719332132, 0.03552384126689981, 0.04557287588285433, 0.037053033153244416, 0.050981080482984324, -0.018338354214087152, -0.005965476460651771, -0.002233732712480258, 0.04051695363234545, 0.032226926539858695, 0.03797283573054614, 0.039679177716585204, -0.04730756320486648, -0.04826413540858613, -0.03708518979910359, -0.0014040798927469173, 0.03962566180312465, 0.038421446469468344, 0.02698918052807988, 0.02269466914313429, 0.013433892182968683, 0.017134971308227886, 0.011614516961647567, -0.018010769022908546, 0.01496593720595932, 0.042574452114513175, 0.02895953273093018, -0.018750053260552766, -0.00548530381590652, -0.01648392715974767, -0.013128116823493834, -0.022046873169964964, 0.02092489145752238, 0.034811059551849564, 0.0035457739323737636, 0.020298817423101963, -0.01999635664954115, -0.08309902398604747, -0.0809499281807161, -0.026270512317533096, 0.016369273716066602, 0.04836135223520919, 0.04749805457149186, 0.0761987298801891, 0.1607341900154623, 0.016944544164151584, -0.039747572247472725, 0.004408721981388763, -0.005880022637051154, -0.024385427667539945, -0.013711572894075158, 0.014586255116720081, 0.040862387487578235, -0.07235708371962525, 0.05779366265602347, 0.05912885551027002, 0.10695874245436887, -0.028054262595600957, 0.046794040452502794, -0.02450406361273101, 0.04126052218173679, 0.03530044756006157, 0.006742922697878522, -0.018410080291497252, 0.011220639667025103, 0.027179486701847708, 0.022345285965183783, 0.026575174117206828, 0.0030016775048591795, 0.05285547020099405, 0.0011588337775374693, 0.05124615456013901, -0.08577169006520709, -0.085964322592523, 0.0010834431601646948, -0.00288892984775223, 0.05985435043583899, -0.06541601115241144, -0.015202887010190975, -0.031532629055937705, -0.03803689880320545, -0.07970868064887505, -0.10870766078414361, -0.11606436606118262, -0.10587198402552282, -0.08557897336925853, -0.08615488479474961, -0.11265675797456208, 0.02875740009022183, 0.010316674213302915, 0.010086735463713858, -0.10881048517109994, -0.0200480232126302, -0.011808735751139469, -0.0025903630409189913, -0.08423822617244046, -0.06334335199218748, -0.046137205401929594, 0.04527548591444906, 0.021401916842275204, 0.007386323459647603, -0.010477012962319418, -0.018448000656713825, -0.014681165993479484, -0.013138457644165344, -0.07449221218359942, -0.01883724124407781, 0.030044319706331993, 0.029777999309804196, 0.0825641088475196, 0.08187799276469773, 0.03388803248513034, 0.020401653445762703, 0.05929920544357989, -0.058546623042834804, -0.057574742008991465, 0.005159533020003771, 0.04048308528653837, 0.07447140781315101, 0.07590651623897676, 0.06655858563381564, 0.03890426722498244, 0.04645527656002373, -0.041571859404782106, 0.013552541914000153, -0.0016971633481207438, -0.06081991710564335, 0.001433280727630478, -0.036742145188998994, 0.05062690548647415, 0.027196223274544934, 0.006425655891192944, 0.019328705136374465, -0.09385662755782045, -0.05965868262612793, -0.12152214512358442, 0.035769739670662874, 0.06303253005121819, -0.032748807830494615, -0.03739505069128862, 0.011167364649997588, 0.001942687900490362, 0.01910281364916207, 0.0023218335349344302, -0.024477821785756814, -0.04195345868944442, -0.03981579973760362, -0.03406751128451679, -0.0206085114078963, -0.05917520864658199, 0.0483344273983235, -0.06560575817248379, 0.02087323354409244, -0.03105890530438255, -0.0685674362851804, 0.04461064473083176, 0.04836577656635268, 0.0501372531792242, 0.03143635213722515, -0.009767657719271496, 0.02498917939683811, 0.020514793111181952, -0.0006978882682979336, -0.001358805654556527, -0.009208795736570494, -0.0025463820734832575, -0.01884211731965347, 0.02308526621894465, 0.092752949125008, 0.04865334739459461, -0.11496803527720151, -0.08039726670178172, 0.059223864213355605, 0.06648005587974117, 0.0897309368831161, 0.04971065421725031, 0.05056567664526445, 0.05620669881083178, 0.023390984197198934, 0.07806607798372713, 0.05584277617065933, -0.03160304061652533, 0.09730397809728823, 0.03196839130385632, -0.02438778123305213, 0.08704051725019367, -0.0656074766060623, -0.06049902408358211, -0.08535302922050093, -0.0183985025506417, 0.03130831222011815, 0.02192385937361458, 0.004234939395779684, 0.10034490695912704, 0.107734590668558, 0.058980283580158964, 0.07010959519451677, -0.0004131844641528753, -0.02317409670807378, 0.017550861842257556, -0.1541016065654437, -0.12194753453721309, 0.012950552901101206, -0.002741546353129629, 0.10574820149796896, -0.08936662139931528, -0.006556875526765434, -0.05473243688195859, -0.05351625035386019, -0.08614722675937297, -0.08148172554678595, -0.062977200505261, -0.0291938383916925, -0.04240392803040651, -0.04041291862398559, -0.04147843501584521, 0.053898077150401034, 0.03741792986091654, 0.03888423963005387, -0.11212418698129901, 0.015485478402732226, -0.017881796993378093, -0.01578928405206532, -0.03337281937655126, -0.043489188862527006, 0.021157999321654478, 0.10903528237877949, 0.09745150748596185, 0.0025781394891756684, 0.03156099696333827, 0.02782866214270096, 0.02194996357185309, -0.023113871678126657, -0.10225147923407658, 0.10731752186510915, 0.10535142813055062, 0.09829828755922164, -0.04156933297594483, -0.035932951536581416, -0.09101619247541293, -0.07844314352882062, -0.020841425363917563, -0.07190363996886369, 0.08422831213781486, 0.05425958012083427, -0.052235635505029174, -0.028989504242896785, -0.03247421486811985, -0.05972703828206887, -0.05436382216590678, -0.052590015736411706, -0.04721157771919561, -0.031413246889143404, 0.035247790645950045, -0.03549548519433314, 0.012480168939421998, 0.06090295590656567, 0.03681048716673625, 0.020211353537724, -0.010141640038834648, -0.013784862903458941, 0.02190593317150962, 0.017369971535913856, 0.03480802158883393, 0.08892387148242951, 0.02778182643197113, -0.0254622645777743, 0.0037373685162792225, -0.009040794329179251, 0.036211894678699626, -0.062448244329951205, -0.0633577801833333, -0.0051011570909524654, -0.009002424539967479, 0.002749446101336809, 0.017976551424260117, 0.030526331597092313, -0.08958818522177654, 0.11573239944149515, -8.19507125008716e-05, 0.07143815549941854, -0.011753789528133303, -0.03327221038289267, -0.07826626806803293, -0.04787548673288532, -0.12492711325403877, -0.10954100414173255, -0.0014178856133717536, 0.0205129346882244, 0.06410863901536772, 0.06340243420350049, 0.04231789382786736, 0.08743464650841534, 0.0026164020525822314, -0.03289527558168555, 0.026898032014424037, 0.03872268200597297, 0.06462018289649876, -0.019263115423202196, -0.06211946344300158, -0.0041529937351495174, 0.02980613225291969, 0.09251314759596951, 0.015739946436849426, 0.10618317982103599, 0.02876836557436179, 0.013498908513180367, -0.018012320231763693, -0.07279691894713111, 0.046525435389085136, 0.04360384185610624, 0.040953858062023195, 0.05132472039353745, -0.010701600083692019, 0.07034235969767418, 0.013851823589232889, -0.05541322491790297, 0.04941534371611327, 0.0038631953373084635, -0.04926351218576726, -0.0383932426987352, -0.0839941073401635, 0.016829359215628628, 0.01638670321319753, 0.02639147655640114, 0.10476820770300926, 0.011657040566407886, 0.015854072296899092, 0.04707273353733867, -0.04521500322546533, 0.00376126247668766, 0.044130526706910804, -0.054840193210057356, -0.09643770903891978, 0.012035720343734646, -0.11943381147275695, -0.12508257827531535, 0.06072413286013767, -0.022635551580671823, -0.005100994908798556, -0.06530135230165109, 0.09683862202883854, 0.08029138623108949, 0.0581007214663305, 0.03189310381225062, -0.0034285142517204827, 0.05994001126207261, -0.09277867018516074, 0.0014120199761681522, -0.04317547087212675, -0.09330272492304402, 0.002543468825832094, 0.08305207150102865, 0.012229603816026426, 0.035411883359924096, -0.00277321637960627, 0.0024669452050502215, -0.028653251471828182, -0.02572848250640499, -0.042588635275775374, 0.04701903141485878, -0.017640170142562306, -0.04004495992422419, -0.06463338321268298, -0.09589031085037704, -0.055694259891133906, -0.054495400945022573, -0.028780825957209977, -7.381781442554742e-05, -0.009252599342801477, -0.09566168954468757, 0.046939406556051264, 0.0007191429507870927, -0.09099401350625803, -0.058540238782255734, -0.007899216074823544, 0.09765487515800653, 0.11364094507779654, 0.09656663635434892, 0.08562168445205681, -0.03560214774808404, 0.11817007017545632, 0.08559150953765327, 0.09799994926934595, 0.025224435437364457, 0.024765374956872675, -0.044775441381638456, -0.024328166876117743, -0.0019262038330735932, -0.022022481635463678, -0.05438053921236933, 0.013163137471403562, 0.10552492135948241, 0.06102037312092439, 0.05678078566713633, 0.05549460367765971, -0.029806068783833572, -0.0005865494010714552, 0.01127943272220105, 0.052725292399077854, -0.026451537431115998, -0.04510435392607949, 0.0059241490098565835, 0.022795258862084604, 0.040616657546387935, 0.015575677687464592, 0.06911990350698512, 0.010308644122940483, -0.0737176342075807, -0.08809081742984387, -0.10413203932110986, -0.09068378209553828, -0.07138881131999521, -0.03430412600000132, -0.04099767835665235, 0.001318922650392795, -0.06875045363591756, -0.09848152963089438, 0.05314786495825538, -0.08723989123152757, 0.04338792844569704, -0.0879768515186738, -0.03840231650912904, -0.009249373116168481, 0.14404550162962168, 0.052710541266923684, -0.058129172229559135, -0.043176148481281845, -0.00763719633873612, 0.04617735812353018, 0.02153169452418242, 0.05519638197210965, 0.17224413986447723, 0.05421005636146002, 0.10637384590228072, 0.05095677108634371, 0.0025114007635140168, 0.15324066670789782, 0.0022309639561640423, -0.0014848024360421992, 0.01305104877160238, 0.09563236415828195, -0.05583125980229195, -0.0002461849339200324, -0.01799959425970621, -0.055830271885188895, 0.11976801308403058, 0.03855460894261144, -0.10492447438644946, -0.06795444156548978, -0.010502961799517568, -0.06146733736115668, 0.039126370561338934, 0.13024060011398295, -0.012026501142649521, 0.008688419257274267, -0.04952916370830407, -0.11020624159914308, 0.02224461286117958, -0.03273427704090795, -0.11253461060740082, -0.05241383193639555, 0.01649504060006621, -0.05578780915437056, 0.019479073398049513, 0.09355376806179055, -0.07748295412933656, -0.0853481391231199, -0.1138307362011508, 0.17997720407762685, 0.16652266615432312, 0.0667493890667628, -0.08629118785639509, -0.10124395379122346, -0.06424409089977574, -0.13826380511136316, 0.02791370968410354, 0.02698208348710752, -0.0361443028709564, 0.14467923544061448, 0.14665758754170427, 0.10615063453840277, -0.027966391989169562, 0.071875610142226, 0.07839871567593343, 0.05466892857299632, 0.08484178998158348, 0.05675990329556585, -0.05300574474249926, 0.02645627789489335, 0.027661709264077888, 0.011859454130521816, 0.026908363448159278, -0.07937743880280938, -0.08282005156165875, 0.01750387084957018, 0.05106996292502635, 0.05338486932203135, -0.08696597970703235, 0.02553703719599168, -0.0360564025425835, -0.03471586910268787, 0.05143080167105505, 0.028209254049010337, 0.014286752015857634, 0.034268938069192845, 0.0244749461343263, -0.0902832349872573, -0.13419141851521316, -0.08239902126164622, -0.020655210582609825, -0.016420434335733414, -0.11542892994677852, -0.16963177185756245, 0.05383258109166715, 0.23917603463333886, 0.15586381222874154, -0.0891923112287976, -0.09571323937533749, -0.03139030630572322, -0.02086267678256544, -0.059278664503765614, 0.05269111999233719, 0.0356002499403279, -0.04003563681776452, -0.02008049001983812, -0.047680726552462326, 0.058823687004379004, -0.025106744214844306, 0.019779646537838112, -0.008342371611999844, 0.10118300798187865, 0.0639662141932634, 0.017101798509247902, -0.09869887964467336, -0.049292606304564474, -0.04850856094233908, -0.04390406538312085, -0.10464321022699864, 0.14690732081769406, 0.09865227463333884, 0.10397709266173304, 0.1313616024512259, 0.037371652661590496, -0.03936212396915269, 0.038236658714563235, 0.006747997224821455, 0.05498222888467844, -0.10935751578501395, -0.0068615978200161215, -0.02066803887735853, -0.05244239769027012, -0.0371843744464709, -0.03679949885466728, -0.012121509343263408, 0.02686433944552098, -0.09948853750620751, -0.022159822852996443, 0.01367560927612762, 0.01667053792885764, -0.06430689992509978, -0.006813223544763301, -0.03624589551391321, 0.019999279416060074, -0.06209845155158307, 0.11356919070349934, 0.050432151523583844, 0.03808502652464662, -0.09746247775939149, -0.05729058288072335, -0.04899983178050719, -0.009533554107308313, 0.019358796815095107, 0.18372934075199243, -0.008185184462918325, -0.04997387080426185, 0.02453190346848266, 0.0440118142344424, -0.02378804843788115, 0.022875936819000638, 0.05178250763527036, 0.09100455324506874, -0.027929609736377665, -0.02784217831986087, -0.014575085602533965, 0.0062969367290467175, -0.021961190356994526, -0.006511382583316272, 0.003133563876194415, -0.034698732886183775, -0.027260781477693907, -0.038779833768004805, 0.04613869065981186, -0.01583743414885594, 0.04903607056602039, -0.05487883653204138, -0.10219048828720281, 0.06667172268416797, 0.04196308388817113, 0.012126901020646138, 0.0014885834450520429, 0.07831894408256729, 0.050772468072875485, -0.04397610675717317, 0.06321982727758794, 0.0059358769973991915, 0.04907630286356053, 0.047943282089236774, 0.025863788992133655, -0.06584357935820895, 0.07620798442564466, -0.010293389580127422, -0.025961802236063772, -0.007429958805726291, -0.05151399040714893, -0.022321350024725656, 0.005121099086100796, -0.08178771653047173, -0.06441769875530981, -0.012264875099447955, -0.0021764990976373415, 0.0016654003151788453, 0.03294920000257237, -0.009208858581914356, 0.0013491779594582151, -0.011903539840992532, -0.0662759010835772, -0.043312118857172496, 0.08062571760736545, 0.06295777584218969, 0.04693352469526042, 0.07540492921057834, 0.05520653486495487, 0.09258064712666773, 0.05994054358264257, 0.07304193458768088, 0.03247012832051903, -0.013537446319337024, -0.05630228904683478, 0.08525482034089303, 0.03313941352648531, 0.09653565345536654, 0.10086250498322546, 0.0053113640708307526, -0.006730285024619419, -0.053249820092627666, -0.07041265299931407, -0.05417219191561525, 0.1637425412101911, 0.0835199626651883, -0.0003887427654077215, 0.010526801788436273, 0.029681232980238233, -0.0021932383106909228, -0.04960854602082654, -0.02279418206253367, -0.037905129049778975, 0.06779453721482444, -0.038021989509926926, 0.03358914963520839, -0.0309468679439303, 0.014255431252734417, 0.006899597615037008, 0.03626305704487424, -0.06201137795600567, -0.09082052716587732, -0.0633579076048748, -0.03600061710217324, -0.04092631340902116, -0.029736230625620926, -0.029873133511749014, -0.014010870508875539, -0.0660986713542945, -0.06988369302463011, -0.03888491074574627, -0.021899014724019256, -0.008413179104380273, 0.05573505402119072, 0.06863557293972404, 0.021346245044313115, -0.021529588372075033, 0.006230763312889814, 0.08245577964629204, -0.048423199098972795, 0.027089298006231895, 0.050682358015441166, -0.05158429865882088, 0.025879760870152396, -0.029415850794201566, -0.01391286492718282, 0.018395434236102837, 0.09215065702102013, 0.05948664054810728, 0.023056306466844416, -0.0032383557134768866, 0.08848136809585712, -0.05765669107045254, -0.14426108302129262, -0.06645479314898131, 0.12286400667342605, 0.0655837382184883, -0.04055711849342258, 0.009932806291997134, -0.09264722674649586, 0.040588650750182996, 0.14463596714155952, 0.03629050880540269, 0.10804660078831485, 0.09863127749360372, 0.03089292966346129, -0.01978278713259244, -0.018482681886227884, -0.11659889460900426, 0.05205241282624851, -0.006653612244528789, -0.13331229077914167, -0.003395081991402389, -0.017578499088931904, 0.007200067377800898, 0.06437410469235261, 0.041748389653390956, -0.07813791688166374, 0.027580192551112298, -0.04767289114977702, -0.047678688471087784, -0.001996826133658089, -0.019961635532587275, 0.047360037365263764, -0.011362657855810582, -0.01793617383581134, 0.004614778286967554, -0.049483983314748965, 0.029200761225581805, -0.08902806207892078, -0.038615110157931766, -0.05668962506255491, 0.024048601183713988, -0.07897521336294028, -0.03293468885673771, -0.019503365228221103, 0.002870190044272687, -0.03712324786867499, -0.06547010698277167, -0.058341767062231334, -0.04169727383983142, -0.013698428170199785, 0.01257066272598882, -0.04944308397626161, -0.11584113252078697, 0.013325213065002135, -0.0330755900748991, -0.001237913603844583, 0.05019582881131398, 0.00823457289498743, -0.02925996159261095, 0.02901013699378587, 0.06041490864163258, 0.029955249406976817, 0.015458954191556731, -0.0010436253026025629, 0.021669066818491654, 0.035415865254151246, 0.011714606280455767, 0.0326959290606766, -0.0129680829168543, 0.0031119994702386985, -0.0335196401581072, -0.010717693972773605, 0.0101285758942289, 0.0869734984725233, 0.03912583012421495, -0.017215283843925445, -0.019569488350707983, -0.019746737018414475, 0.0012911481712397671, -0.039152385622138595, 0.08255424546523708, -0.07695921557503867, -0.03806926064317303, -0.007665736927338403, 0.017638444730125224, 0.035900807434197476, 0.04596937419448863, -0.03737494671617961, -0.028740447673338727, -0.05830593029105704, 0.057039101298477606, 0.04173976596642458, -0.04014040848562828, -0.0004928105270555544, 0.049847134207281846, -0.02395027395483185, -0.03636363352342921, -0.0032458123620033507, -0.038636803590810856, -0.04683008793172779, -0.08683468783334541, -0.07685798344427379, -0.05706341493702463, 0.020891204128015865, -0.08108654361672188, 0.054686177621399594, 0.04195540861639799, -0.023571401322192997, -0.054508484237983566, -0.048876046411215984, -0.09810875936614863, 0.08163252970330127]], "intercept_": [-0.5581681041621734], "n_iter_": [6]}