{"penalty": "l2", "dual": false, "tol": 0.0001, "C": 0.001, "fit_intercept": true, "intercept_scaling": 1, "class_weight": null, "random_state": null, "solver": "liblinear", "max_iter": 100, "multi_class": "auto", "verbose": 0, "warm_start": false, "n_jobs": null, "l1_ratio": null, "classes_": [0, 1], "coef_": [[0.0005737673692237467, 0.000795473670123953, -0.006269455436805763, -0.010149600121313152, -0.0020119907051686266, 0.005243139035364408, 0.004748315984496429, -0.00034821085347859135, -0.00016065427314548394, -0.0007682313272981531, -0.0005056103698323289, -0.00034704906788418264, -0.002831060392889293, -0.0030920914448396898, -0.00471635180588416, -0.0022541407834580363, -0.002240916742216114, -0.004241857192481569, 0.0020642751187119842, 0.003843976182478118, -0.0015670104761882613, -0.00013396313877443592, -0.0008095245556060492, -0.00045988732691450753, -0.00022458274528902578, -0.0017253378894605562, -0.0018805745825995078, -0.0013005259036275379, -0.0025237986674520015, -0.0013548997200618276, 0.0017345985121444644, 0.002219358648920131, 0.0043279543729788, 0.0036236695192113136, 0.0032128972023673825, 0.003103286921003741, 0.0019594778577344844, 0.0013634213306702118, 0.0010512170323679934, 0.0012308937491178637, 0.0010346379143362336, 0.0038382773623181206, 0.003901928424041943, 0.00506715060007831, 0.004795102029449318, 0.006522131985821195, 0.006557605426483061, 0.0058351559234915236, 0.0007999380338825235, 0.0008936172708444428, 0.0006566031602799718, 0.004422666463289552, 0.0008803126677155584, -0.00015567666503316275, -0.00023652865910701594, 0.00322043683332888, 0.006239302318335226, 0.006916076278672487, 0.003646515929784655, 0.004104904020107825, 0.001470313651201514, 0.0005317268641515291, 0.0016385179744648618, 0.0010958866294146536, 0.0010995937316432105, 0.00037107634003530853, 1.5391442844372892e-05, -0.0004988969346645843, -0.00037798968965301207, 0.0032513985365926162, 0.0038066886761720852, 0.0058496434400744654, 0.0017782833994623823, 0.0027501015419116887, 0.00018811791247332453, 0.000964801694661433, -0.0015718672330875603, 0.0012954607641487905, 0.0030438363018413747, 0.003608822414104815, 0.0033959823827456512, 0.002601021048681561, 0.0024499404149163806, -0.0004842208136869451, 0.0018677041058174188, 0.0026496782749491424, 0.00620763884456061, 0.005225908748083957, 0.0017755587809008685, 0.00310207247787887, 0.0014659855970440836, 0.0014315893387961253, 0.0017426562326174689, 0.0037207826167113215, 0.0036279449534845766, 0.004242299896327332, 0.0024563109997495828, 0.0008588334417997888, 0.006267134793779245, 0.006961927397990379, 0.002352756838754193, 0.0025528205211110314, 0.0023574528044976472, -0.003866714234587078, -0.0006643917866138715, -0.0004595415913159037, -4.368389150602356e-05, 0.0005851758764737583, 9.438840121252675e-05, -0.002104483152065912, -0.00026033941946723645, -0.002188961816328614, -0.0001036258966522424, 0.0020001945747844373, 0.0023096638185914698, -0.0033431140938133107, -0.0027846267890162322, -0.003624032253953521, -0.0025711464776090156, -0.0011210163092467214, -0.0014625713405020883, -0.0014956943087138922, -0.0013971174353033314, -0.0018073632828361113, 0.0026024453465257236, -0.0015380535800942861, -0.0025503096414018164, -0.0019874130100532676, -0.000975541810784911, -0.000713545934011843, -0.004962417622203804, -0.007229288845605912, 0.006386297781258506, 0.0004893447682612086, -0.001511773277212737, -0.0005455020208181226, -0.000703688294168835, -0.0005927539876474918, -0.000992412958914193, -0.0013573597956628534, -0.002427673730480307, 0.001344823642651995, -0.003773889819197438, -0.009432427418746758, -0.0043556794528581706, -0.0008607143658347776, 0.00022579282686590249, 0.0004751976929336564, -0.001539033158591213, -0.002154577609235516, -0.0016028238651699287, -0.0010026508208239204, -0.002328514818875812, 0.0009634015147682926, 0.0006536612074236831, 0.0009558312426230413, 0.0014203527050449002, 0.0020546630479739802, 0.003945323926319997, 0.003708707470664601, -0.001836265147914314, 0.0011135990079199454, -0.00187419255516762, -0.0014492513683289716, -0.0020699146934477866, 0.0013400661958075876, 0.0019226039016332786, 0.0019364236789077758, 0.001837691792399839, 0.0015028602907507784, 0.002335249879409011, 0.0027686426141070542, 0.0019424416172070932, 0.0008848960544071899, 0.0007324282144900511, 0.0003937909844624379, -0.0032626067788865893, -0.002799864432359717, -0.002947724875515863, -0.0008912970651197379, 0.0001954935196162925, -0.0018463514266369003, -0.0015703227160649054, -0.002475681456515878, 0.00018161888456060427, -1.4695033834411026e-05, -0.0035824820433820567, -0.00022600659611856323, -0.0001449671075052916, -0.00043102689734167687, -0.0005062839196868069, -0.00039053601960247186, -0.002271423429842256, -0.0006416933659881285, -0.0013029059004980097, 0.00019440644489763213, -0.000389927994234212, -0.00046696883502639146, 1.2817048392505045e-05, 0.0017764736219254792, -0.0007314348270407032, 0.0004523500996561375, -0.0010015442569101807, -0.0014179157053834206, -0.0025913079769494434, -0.00035695582852714267, -0.001108274885757516, -0.0011139116062395895, -0.001528108658065769, -0.00038180114827581787, -0.0003071181714898426, -0.0001625672126756595, -0.0009282993800053035, 0.0005726314309996008, 0.00010028992046164869, 0.0012387719239497102, 0.0017650022400473241, 0.0010786132207651197, 0.00026336078850909355, 0.001532621210571131, 0.0010025633427139151, 0.00041733492387650747, 0.0009771719054059139, 0.0019402453264640914, -0.0007426318644650328, 0.00014403033912471932, 0.0018054597810770968, 0.0016775168588405716, -0.000386665300600967, -0.0007444151327908043, -0.001138185339940781, -0.0018896803623591597, 0.00010936735619721383, -0.0006311972786757116, -9.882196529377741e-05, 1.427716865887151e-06, -0.0004829844529794196, 0.004753177843914797, -0.0018618393547140072, -0.0032080668095110956, -8.948051974078347e-05, 0.0010000270733591836, 0.0022701821118747134, -0.0021127512060070855, -0.002116995794384239, -0.0017358664537768707, -0.001561068510725816, -0.00017608954209680805, -0.0003330279108656916, -0.00014992386090717652, 0.0007463731024392399, 0.00043415477293333714, 0.00020187874075352542, 0.0005798934890467332, 0.0015083821168326798, 0.0004041498932215605, 0.0037463563842812676, 0.0033150364104388586, 0.0007213263187442333, -0.00022600642120273304, 0.0004315991355369258, 0.0009661526992696737, 0.0023602341667066985, 0.003482077626025484, 0.0032142582623462808, 0.0035909626476971304, 0.003764281964200789, 0.0032451621052734243, 8.160351655444752e-05, 0.004166991943006829, 0.003683690288149106, 0.0015080207074087493, 0.0013560168634999402, -0.0014572387829086188, -0.0021760646081080796, -0.0013698552513671755, -0.003267368009911225, -0.0008290997166933335, -0.0029960093498185634, -0.003381931436912379, -0.0018338581189033067, -0.0007033491930806315, -0.0007678979730192148, 0.00024269113397149377, -5.794577387992247e-05, -0.005976335798578195, -0.000989337484453851, 0.0026747061327354856, -0.0012252734711537144, 0.0011303067235530631, -0.004361753175721971, -0.003986218684392637, -0.0037270567458075584, -0.003720769956484302, -0.004036154113362172, -0.002995551642852572, -0.0036905939092683245, -0.0009470002916217663, -0.004164190381722069, -0.004039178137051295, -0.0033431131812153483, 0.0007840232909471843, -0.000271139242871064, -0.00012713726313907936, -0.0018616915354284836, -0.0023502547104736616, -0.0014231994797545275, -0.0014122411655457117, -0.002554059613388042, 0.0009490144889633796, 0.0017292284513673387, 0.0020136387512428573, 0.00019685235946437647, 0.004006371712285917, 0.00011403043755755382, 0.0009319392266495026, -0.0034662241544004767, -0.0030403008246804187, -0.0029466692896569307, -0.0034900150938914545, 0.00011111671774452383, -0.0004113325514359954, -0.00257733273007007, -0.0018942604792937827, -0.0019215544551773127, -0.004026752759209399, -0.004772550311303991, -0.005134069384251275, -0.004465309155938638, -0.00199080943564777, -0.0009749939890810435, -0.002602665058887284, -0.002119754853419914, -0.0014366601869386332, -0.001435805155141573, -0.000954858128517427, -0.0019722812031019673, -0.002492675368908025, -0.002482667498628483, -0.003570072987085886, -0.002201153183985045, -0.0024747661309634343, -0.0020676902886592966, -0.0017293328958581941, -0.0006605082569425908, 9.085770578154212e-05, -0.0042852461201907345, -0.0014892940002236956, -0.00211778473903772, -0.003129268357692736, -0.002935333856727372, -0.0030079351212612127, 0.002558230640290989, 0.006396238915479368, -0.003705363536887343, -0.003957339484308206, -0.004517699342138002, -0.004823581529058368, -0.0055594303282521925, -0.0005853916729128082, -0.0025191951521834123, -0.002755056137541126, -0.0020856318352902295, -0.002867855591710259, -0.0020446229017725384, 0.001242418756114699, 0.003603029754237872, 0.00578035935742681, 0.0038342050330682316, -0.001516892239080298, -0.0008468973020188011, -0.0013393722625724253, -0.0011458073222303958, -0.001237103127212299, -0.0007546014827903754, 0.003280345154756806, 0.003742689002013245, 0.0027296272693373954, 0.0034270011484376353, 0.004221256622143271, 0.004134975745711253, 0.0035398928464408894, 0.0027378990231226147, 0.004792128913537858, 0.0004106834877136295, 0.000829532574405754, -0.00193657718344925, -0.005290500211992005, -0.00404036171532581, 0.0020482812844024793, 0.0015135841651950153, -0.00048586144581287704, -0.00013697202217700707, -0.0007271768859016797, 0.0017854985329329163, 0.0004010300109041111, -0.00500349786644793, -0.006920372236387281, 0.0024096147399964695, -0.005818070769659, -0.0073395695214874684, -0.005047602060820674, 0.0015735957537357814, 0.0014059484738471245, -0.0007764753703250837, -0.0001300711669800451, 0.0012991549582385888, -0.00027452840771060335, -0.0011170924617027772, -0.0013081057616525394, -0.0008813648231319191, -0.0006031364042873276, 0.00039877188679511924, -0.0027660394197005817, 0.005618078954905752, 0.0058305478928845295, -0.0010685225112855507, 0.00015803814703875345, -0.00042740461271237095, -0.0019731484990725663, -0.0047577695191989245, 0.0021590603475056575, 0.0037811131629659628, 0.0012881308188052501, 0.003273575998893652, 0.0021200741816943453, 0.0008986075475944, 0.0020300398242615474, 0.0013130982935022145, 0.00290197642736248, 0.002274202846263328, 0.0008341335243767651, -0.0022363053872724078, -0.0012620111933543243, -0.002206717223080818, -0.00211780147717402, -0.0021870719769234094, -0.0015943225405517295, -0.0031344587120148, 0.0014708221693785098, 0.0016985336162724037, -0.000883148304198215, 0.0028975728291972965, 0.0018309686972007668, -0.0033158930823421855, -0.002826573773928635, -0.00360160677894069, -0.003932570378917592, -0.00012862323036189202, -0.0006062491538496766, -0.0017896227315557347, -0.0007332464473470504, -0.0013298293757255462, 0.0038737323620273525, 0.0032428247287520566, 0.0029126427993355192, 0.0035123948682466723, 0.0031419070915723, -0.0012970991948211394, 0.0002831677423875469, -0.0005445134097791045, 0.002521772182557099, 0.004660189156677383, 0.003981779529566828, 3.427875475128581e-05, -0.0006564696293261185, 0.0002077097078054752, 0.00228525683998602, 0.0037949570060373723, 0.00439020886935207, 0.005256232736243559, 0.0038517886043379257, 0.0028371215841762588, 0.0019787522275539994, -0.0009350352031118425, -0.000307905719102812, -0.0011247841752668201, -0.004712199470979359, -0.0041370544666636516, -0.0032602590139741714, 0.0002271853925436845, 0.004016230103272988, -0.003688949396277395, -0.002922125736032388, -0.0018188834751613583, -0.0026877683883862378, -0.0006448417825858376, -0.005244475555097812, -0.0052853789722630785, -0.003621020741437992, -0.004685470877626193, -0.004093822478697741, -0.003327615257215214, -0.0016634242044484368, 0.0026735128058646375, -7.622083830566756e-05, 0.002301200636821601, -0.005107235259305998, -0.004702648444739373, -0.003639486459878538, -0.004086222669723053, -0.004982613913420026, -0.004067574714472908, 0.004081977024068024, 0.004966010384085596, 0.004528876295309449, 0.005634363653157343, 0.0036173567981193913, 0.002633166371580424, 0.003217311455297135, 0.0031237052477772298, 0.002923777675133909, 0.003727162591586703, 0.0013494094577501663, 1.3984570301752577e-05, -0.001274374359875651, -0.0029598480232282086, 0.002924513186905234, -0.0017239318884229404, 0.00013032515204707912, 1.215178600034136e-06, -0.0012851364148597666, 0.0009332234486847218, -0.0007360509132383038, -0.010122966703246096, -0.002494633695686683, -0.0031853560796833314, -0.008106517525011481, -0.0035552771093929868, 0.0047251195514090155, 8.901251520984937e-05, 0.000977108508518479, -0.0048369973778822194, -0.004204693850525252, -0.005169648064949793, -0.0033239045808694085, -0.0037839451722031085, -0.0004903533315109953, -0.0014878785224710389, -0.0012590016325393497, -0.004972172589538247, 0.0009042943934373051, 0.0012787292619020636, 0.0017180238644179577, 0.00046989133972818466, -0.00020162651558194085, -0.005132880390669055, -0.008422912174998222, -0.008533881764475086, -0.00109512810066091, -0.0007911690640082941, 0.0020836640721564044, -0.0010382604131010862, 0.00047815668910951807, -0.0025438146112303313, -0.0035119777814580557, -0.005106827487241129, -0.0035993162043696223, -0.004158895712075939, -0.004882971653821344, -0.004102531540720221, -0.003863980616330763, -0.0033771466436198997, -0.0025297778298405227, -0.00047458019371191554, -0.005899480561129571, -0.00493466869532862, -0.003855758394613244, -0.004417945046994719, -0.004375628044900457, -0.0024756751281921723, -0.002537168701057112, -0.0015734688866021218, -0.0013726790576740584, -0.0027471549099421714, -0.0013681870415941846, -0.0005322930265701881, -5.0598732908609e-05, -0.0005522203154591006, -0.0034763342150200137, -0.0021361686742937193, 0.00375370618223159, 0.002496988867794029, 0.0026047476632823268, 0.0046121943163442815, 0.004352435524312302, -0.0032915510415615426, -0.0025525159394448526, -0.0007427344346247852, 0.0037335260715015495, 0.005334829457418497, 0.003242915618510605, 0.003588675184911052, 0.0013707019196236019, 0.00029969552939042147, -0.003062963968048327, -0.0007324464662309296, -0.0026901417114337457, -0.0021377154898507608, -0.0029497877191720346, 9.744796969974368e-05, -0.002912058847891131, 0.0022086435119283445, 0.0037974872638909044, 0.0021326021889362507, 0.0019532923764370817, 0.0029118672092411837, 0.003519331213738122, -0.002011307890218317, 0.0011405706319015207, 0.002125909298102623, 0.0016382657661964909, -0.00048105115214847885, 0.0006310685235463501, -0.001318434638799064, -0.0019265128568944538, -0.0028409159708149795, -0.004383049581502284, -0.0030603408830730326, -0.004219568227333048, -0.004344874819901164, -0.0028907343764136826, 0.004153848096979649, 0.0049148809816261805, 0.002626932689185482, -0.004013222342784438, -0.003391883474920825, -0.006308812859357932, -0.0052428537560622115, -0.005155887138196984, -0.0055730496200785224, 0.0005403908389846683, 0.0025869494178761216, 0.000786901941765785, 0.004033401500724801, -0.0005605806159207316, 0.0021679471168933374, -0.0011011790436356245, 0.0013623222682832535, 0.002324746262645015, 0.00827851400322109, 0.0015908518718116787, 0.0039183098568399116, 0.0005759018570385742, -0.0024888038920812534, -0.0010331677510787723, -0.0025169785941291972, 0.0013405791915102462, 0.003646906351574517, 0.0029281455917211994, 0.002087679205249622, 0.0006696921941112257, 0.003324046392451406, 0.0019805614877846005, 0.0033219767630837966, -0.0004696895568736927, 0.0041599747213141415, -0.0033280582656613376, -0.0035189000873622075, -0.0005727075883890323, -0.004741225114025279, -0.005344472563174477, -0.006424363049207134, -0.008401710637152197, -0.00924415181831333, -0.004480938826029619, -0.003973606417338102, -0.004073754620243924, -0.0009657858267782529, 0.00034894812888691933, 0.0024951852211092217, 0.003815625250079704, 0.00398192404988178, 0.00561182598896861, -0.00034946309139406376, -0.0020020001739858673, -0.004955194374290112, -0.005304188689488346, -0.00350144101715571, -0.005043303882782363, -0.007051686052544486, -0.0020211513801896637, -0.0031274750496333736, -0.002063982181753799, -0.002259647731390198, 0.0005246935302074936, -0.00034143079799276837, 0.0011303090395362245, -0.0016517395480246842, -0.0034850611326830774, 0.0011947967788099151, -0.000651959214197553, 0.0007649186689140107, -0.0010736051422323984, 0.0024210071538982975, 0.0017313706262906607, 0.001997033388770916, 0.00316682787936749, -0.00041614648109873046, 0.0017443518315172306, 0.0014416459200825725, 0.000957538449124421, -7.28561001264523e-05, 0.001320294842119811, 0.005931628558966942, 0.005724581187827453, 0.0023595435543471805, 0.003241364637767528, 0.002637729816407844, 0.0006724851855098701, 0.000602352978099963, 0.0026724251020737674, 0.0010851555266375259, 0.0035177630537300084, 0.0014109831918950129, 0.005553157785330803, 0.0008385073394903865, 0.00029743486468872954, 0.00019508067219247606, 0.0003332618019778585, -0.0014885275507561214, -0.000630953200356827, -0.0004076453492296407, 0.003503519382056836, -0.0005280763779649709, 0.0025625609561228113, 0.001493298399690193, -0.0007044528546763897, 0.00042913632134171717, 0.0026845307358749505, 0.0003803560753701699, -0.003255323056310763, -0.004340961378258793, -0.003177768034239702, -0.0027569513209168353, -0.001126642069790402, 0.004784683298381788, 0.003874722875540445, -0.00017117850431712584, 0.0009990782864082682, -0.0001824875318726878, 0.001756001097761308, -0.001463958822731968, 0.0036704174411704626, -0.0006763576814244151, 0.001398063559330368, 9.659044966019457e-05, 0.000735094208287943, 0.0006373967149083406, 0.002559015376665496, 0.00792742011937119, 0.006084275846817911, 0.001784216153342249, -0.0005262669109870607, -0.0031211546468984594, 0.000597445226450991, 0.00016136568744770175, -0.00032347738317466324, 4.693482938820158e-06, 0.0015997053593325447, 0.0008364430182998611, 0.0032309080177169917, 0.0004059209925807681, 0.0024705753058197237, 0.000544337179075697, -0.001973887019794269, -0.0021424174257736826, 0.0032411799910876333, -0.00034795017200709745, -0.0001522652795367305, -0.003429856236798142, -0.0002610660190653246, -0.0010974402325222468, -0.0028295262736696943, -0.002191333912120194, -0.0019046895633749836, 0.0008393942667117736, -0.003220068987774483, -0.00354103941739997, -0.0017530291235940511, 0.0031085984143222325, -0.0022954761877655152, -0.00027373675729647597, -0.005067436699544096, -0.004899722878732279, -0.001679899059693552, -0.00021701478625643403, -0.0009740425375940625, 0.0011336674748322411, 0.0002611591400369567, -0.0005733500835377391, -0.0009109322091719863, 0.0006304194257530206, -0.0004315864105984599, 0.00043883998298826707, 0.0006625656383532559, 0.0006687338578973727, -0.0014686098890227515, -0.0012023892015083153, -0.000921453139686398, 0.002013558453418419, 0.000614956751434755, -0.0034001568254356926, -0.000726070221423598, -0.001635682170566, -0.0012386418171613889, -0.0016480796267722773, -0.0014351396711306814, -0.0005502443675822293, -0.0024847353145714657, 0.0010303060258892319, -1.6041901242106715e-05, 0.0004171198943513983, 0.00039415517545420215, 0.0020527203410188478, 0.0013703644931306763, 0.0003792365652013803, -0.0012596032989513743, 0.0009642750404874918, 0.0017810322700346941, 0.0001769351043948145, -0.0008509408115456818, 0.0006937156235313019, 0.0033263767566480266, 0.0006045020703793075, 0.0010134001559764588, 0.0015183637889166783, 0.0016966959741558354, 0.0019499119785552053, 0.0011674737249472258, 0.00037379350763274815, 0.00158369193876468, -0.0035380562486354164, 0.0030576452012989032, 0.003411705663520675, 0.0005239080770077928, 0.00040170591327539864, 0.0019865388407211645, 0.0016507019435167802, 0.001488428688815769, -0.0012020566489375972, 0.0008346030201731969, 0.002491062085405739, 0.0010380174779503785, 0.0018389916990827434, 0.0011115463503392929, 0.002936059003914326, 0.0044870474283965605, 0.002155284662392067, 0.0012897243806944132, 0.0018431878027932373, 0.0016871231865265388, -0.0009939952774766726, 0.000223645362525416, 0.0011686668493711137, -0.0007574325233653267, 0.0004018601440618246, -0.0012054332011247836, 0.002382837281227248, 0.0007610080003118072, -0.0002844818916318406, -0.0009859350829478912, -0.0022913707276128376, -0.0009506116929713354, 0.0005440887692454337, -0.0002353240079819145, -0.0015905515160762648, -0.000770959766265393, -0.00130657141898493, 0.000631860849915166, 0.0007060933070774354, -0.000721857273434721, -0.0028656856914205183, -0.0005584271086863424, -0.0016104298767949858, -0.0023305599002515095, -0.0014070563475238568, -0.0024992343047154837, -0.0026167422048122358, 0.0016582576164423705, -0.0039129531730478576, -0.004391703822755322, -0.00549552356037398, -0.00510027689582597, -0.005485498732026501, -0.003952833327563958, -0.005764422356092555, -0.0034026891417795898, -0.002261315312267486, -0.0014745921931246875, -0.00035860781879828345, -0.003462011224560393, -0.004467021818093387, -0.0035799306116369414, -0.00340656154323021, 0.0009299689311780768, -0.0020829418051782596, -0.004425948396084918, -0.001605014121204883, -0.0017861974332429617, 0.002388418099408503, -0.0023537150386462088, -0.004296772116748226, -0.003121062600391795, -0.003249547473980625, -0.0003635391972899236, -0.0022259876105678515, 0.00013395448404500163, 0.0010590838099688406, -0.0011522237742036233, -0.0025930883601263497, -0.004737331454135953, -0.003335307739265321, 0.00021368700743430337, -0.002510853954093492, -0.00029836681399013213, -0.0011099909698549528, -0.004806415415335099, -0.0022696978440242682, -0.004934219054647104, -0.008652041185289066, -0.00036909603991015327, -3.1157606719732993e-05, 0.001767119948664404, 0.00019824270814182272, -0.0007304319365392943, -0.0012123438711212078, -0.0007371377127153612, -0.0024404589011646385, 0.0009367579174639911, -0.002693094938406504, -0.0007749602568262492, -0.003311109329216053, -0.00238873698201465, -0.0008376645512692545, -0.003233587269954946, -0.00396963092145879, -0.0011134475448750882, -0.0029464155595900596, -0.0028586955253956017, -0.0033796867429878247, -0.0007749791219213337, -0.001278608461424523, -0.00011711958065028559, -0.00032290834061499336, -0.0019678443230574196, 0.0007846891578608039, -0.0027348831930499307, -0.0010574103667923599, -0.0006083248519541915, -0.0006187315116496872, 0.002122979148815737, 0.00031519477747547195, 0.0009111017863455811, 0.002057927777123978, 0.00028444854395521087, 0.0011093969471026768, 8.304986285853481e-05, 0.0008793407652568068, 0.0007856576317872633, -0.0033575044136104097, -0.002412518228951927, 0.002903077615579139, 0.0015218719498896777, 0.0005580676714466534, 0.002070265802309201, 0.0018179995452810593, -0.00012226863093449622, 0.003925218163310523, 0.0038075897758645776, -0.0020970276471222603, -0.001609175384440357, -0.0008611527143151458, -0.0003070613675597562, 0.003211576151577784, 0.0008993729084566629, 0.002750992710307679, 0.00016864787649138643, -0.00017201894873829877, -0.0009265137456272472, -0.0036635753046078768, -0.0016142615356009807, -0.0018603875623126151, -0.004536682882828073, -0.0045704755361349065, -0.0039152487922659695, -0.004089975778184614, -0.0038734668063189143, -0.0015992994603109781, -0.002900342123563335, -0.003987215382712806, -0.003290038130614838, -0.0025175958272491915, -0.0023638964813150897, -0.0028713412809878583, -0.003011072958232088, -0.002385066064418566, -0.003838236810048782, -0.004209154710932932, -0.004472309907558976, -0.0032804883720067555, -0.0031376432548682305, -0.00578810900020726, -0.003377509154293391, -0.00471009866424915, -0.002459082389879953, -0.0026508638105515723, -0.0037432016114263243, -0.0025765035080647304, -0.006837370016686293, -0.004684992212558073, -0.002440174576510563, -0.005322346895184177, -0.0042854673746203385, -0.004160904140458218, 0.0017709015075459502, -0.0006235339628200713, -0.0029429179279705495, -0.002563100347180727, 7.718882447274192e-05, -0.0006690773481319483, -0.000141348429267074, -0.0002486328737601309, 0.00240086579573175]], "intercept_": [-0.014123241021264095], "n_iter_": [4]}